<?xml version="1.0"?>
<opencv_storage>
<cascade>
  <stageType>BOOST</stageType>
  <featureType>HAAR</featureType>
  <height>24</height>
  <width>24</width>
  <stageParams>
    <boostType>GAB</boostType>
    <minHitRate>9.9900001287460327e-01</minHitRate>
    <maxFalseAlarm>2.5000000000000000e-01</maxFalseAlarm>
    <weightTrimRate>9.4999999999999996e-01</weightTrimRate>
    <maxDepth>1</maxDepth>
    <maxWeakCount>100</maxWeakCount></stageParams>
  <featureParams>
    <maxCatCount>0</maxCatCount>
    <featSize>1</featSize>
    <mode>BASIC</mode></featureParams>
  <stageNum>15</stageNum>
  <stages>
    <!-- stage 0 -->
    <_>
      <maxWeakCount>10</maxWeakCount>
      <stageThreshold>-1.5296380519866943e+00</stageThreshold>
      <weakClassifiers>
        <_>
          <internalNodes>
            0 -1 143 -5.4385977983474731e-01</internalNodes>
          <leafValues>
            9.8148149251937866e-01 -7.3121386766433716e-01</leafValues></_>
        <_>
          <internalNodes>
            0 -1 398 -2.7680480480194092e-01</internalNodes>
          <leafValues>
            -4.2246103286743164e-01 9.5155817270278931e-01</leafValues></_>
        <_>
          <internalNodes>
            0 -1 230 -5.9988570213317871e-01</internalNodes>
          <leafValues>
            9.5289993286132813e-01 -1.4590083062648773e-01</leafValues></_>
        <_>
          <internalNodes>
            0 -1 521 3.3095586113631725e-03</internalNodes>
          <leafValues>
            2.8784331679344177e-01 -7.4848759174346924e-01</leafValues></_>
        <_>
          <internalNodes>
            0 -1 277 -7.5804680585861206e-02</internalNodes>
          <leafValues>
            9.1105079650878906e-01 -2.1510499715805054e-01</leafValues></_>
        <_>
          <internalNodes>
            0 -1 292 -4.5170277357101440e-02</internalNodes>
          <leafValues>
            7.6929074525833130e-01 -2.5098466873168945e-01</leafValues></_>
        <_>
          <internalNodes>
            0 -1 520 5.5302996188402176e-03</internalNodes>
          <leafValues>
            3.0113527178764343e-01 -7.1397691965103149e-01</leafValues></_>
        <_>
          <internalNodes>
            0 -1 282 -1.3937115669250488e-01</internalNodes>
          <leafValues>
            -3.2987451553344727e-01 5.8174902200698853e-01</leafValues></_>
        <_>
          <internalNodes>
            0 -1 178 -1.4718995094299316e+00</internalNodes>
          <leafValues>
            9.1281640529632568e-01 -1.9692796468734741e-01</leafValues></_>
        <_>
          <internalNodes>
            0 -1 529 -3.9316355250775814e-03</internalNodes>
          <leafValues>
            -7.3777234554290771e-01 2.6951453089714050e-01</leafValues></_></weakClassifiers></_>
    <!-- stage 1 -->
    <_>
      <maxWeakCount>11</maxWeakCount>
      <stageThreshold>-1.6886674165725708e+00</stageThreshold>
      <weakClassifiers>
        <_>
          <internalNodes>
            0 -1 133 -1.0747361183166504e+00</internalNodes>
          <leafValues>
            8.7709498405456543e-01 -6.7346936464309692e-01</leafValues></_>
        <_>
          <internalNodes>
            0 -1 202 -5.3171658515930176e-01</internalNodes>
          <leafValues>
            -3.5279586911201477e-01 8.7498420476913452e-01</leafValues></_>
        <_>
          <internalNodes>
            0 -1 531 -5.3152628242969513e-03</internalNodes>
          <leafValues>
            -7.7978211641311646e-01 2.7340546250343323e-01</leafValues></_>
        <_>
          <internalNodes>
            0 -1 527 7.8302938491106033e-03</internalNodes>
          <leafValues>
            2.2688990831375122e-01 -7.9827630519866943e-01</leafValues></_>
        <_>
          <internalNodes>
            0 -1 49 -7.9083899036049843e-03</internalNodes>
          <leafValues>
            -8.3795493841171265e-01 1.5275979042053223e-01</leafValues></_>
        <_>
          <internalNodes>
            0 -1 37 8.6123533546924591e-03</internalNodes>
          <leafValues>
            2.8996962308883667e-01 -8.0401688814163208e-01</leafValues></_>
        <_>
          <internalNodes>
            0 -1 222 -7.7193424105644226e-02</internalNodes>
          <leafValues>
            7.1593976020812988e-01 -2.8741058707237244e-01</leafValues></_>
        <_>
          <internalNodes>
            0 -1 245 -1.1116331815719604e-01</internalNodes>
          <leafValues>
            7.8060334920883179e-01 -2.0065921545028687e-01</leafValues></_>
        <_>
          <internalNodes>
            0 -1 524 -2.2126506082713604e-03</internalNodes>
          <leafValues>
            -6.6801148653030396e-01 2.7672764658927917e-01</leafValues></_>
        <_>
          <internalNodes>
            0 -1 114 -9.4033822417259216e-02</internalNodes>
          <leafValues>
            7.5014346837997437e-01 -2.3224067687988281e-01</leafValues></_>
        <_>
          <internalNodes>
            0 -1 87 1.2311292439699173e-01</internalNodes>
          <leafValues>
            -1.7112943530082703e-01 8.4162932634353638e-01</leafValues></_></weakClassifiers></_>
    <!-- stage 2 -->
    <_>
      <maxWeakCount>7</maxWeakCount>
      <stageThreshold>-1.2427041530609131e+00</stageThreshold>
      <weakClassifiers>
        <_>
          <internalNodes>
            0 -1 446 -2.1342641115188599e-01</internalNodes>
          <leafValues>
            -6.7415732145309448e-01 9.0909093618392944e-01</leafValues></_>
        <_>
          <internalNodes>
            0 -1 438 -1.7212119698524475e-01</internalNodes>
          <leafValues>
            9.6306067705154419e-01 -4.2322131991386414e-01</leafValues></_>
        <_>
          <internalNodes>
            0 -1 274 -6.9964379072189331e-02</internalNodes>
          <leafValues>
            9.1067886352539063e-01 -1.6280730068683624e-01</leafValues></_>
        <_>
          <internalNodes>
            0 -1 51 6.2710657715797424e-02</internalNodes>
          <leafValues>
            -3.2771086692810059e-01 8.9011853933334351e-01</leafValues></_>
        <_>
          <internalNodes>
            0 -1 175 -4.0401522070169449e-02</internalNodes>
          <leafValues>
            7.6177126169204712e-01 -1.6363304853439331e-01</leafValues></_>
        <_>
          <internalNodes>
            0 -1 186 -5.6436426937580109e-02</internalNodes>
          <leafValues>
            8.5448408126831055e-01 -2.4975258111953735e-01</leafValues></_>
        <_>
          <internalNodes>
            0 -1 172 -8.6178958415985107e-02</internalNodes>
          <leafValues>
            8.3666563034057617e-01 -1.6682606935501099e-01</leafValues></_></weakClassifiers></_>
    <!-- stage 3 -->
    <_>
      <maxWeakCount>16</maxWeakCount>
      <stageThreshold>-1.1081354618072510e+00</stageThreshold>
      <weakClassifiers>
        <_>
          <internalNodes>
            0 -1 96 -7.3292875289916992e-01</internalNodes>
          <leafValues>
            -6.8904596567153931e-01 9.4594591856002808e-01</leafValues></_>
        <_>
          <internalNodes>
            0 -1 180 -1.5617069005966187e+00</internalNodes>
          <leafValues>
            9.6334236860275269e-01 -4.3518981337547302e-01</leafValues></_>
        <_>
          <internalNodes>
            0 -1 234 -2.3502916097640991e-01</internalNodes>
          <leafValues>
            -8.7912902235984802e-02 8.9653086662292480e-01</leafValues></_>
        <_>
          <internalNodes>
            0 -1 379 -8.9749753475189209e-02</internalNodes>
          <leafValues>
            9.7017103433609009e-01 -1.1609876900911331e-01</leafValues></_>
        <_>
          <internalNodes>
            0 -1 364 1.2037956621497869e-03</internalNodes>
          <leafValues>
            2.1359013020992279e-01 -8.4502571821212769e-01</leafValues></_>
        <_>
          <internalNodes>
            0 -1 275 -1.1139562726020813e-01</internalNodes>
          <leafValues>
            8.5676646232604980e-01 -1.9687232375144958e-01</leafValues></_>
        <_>
          <internalNodes>
            0 -1 29 7.1396127343177795e-02</internalNodes>
          <leafValues>
            -1.8849682807922363e-01 7.4821680784225464e-01</leafValues></_>
        <_>
          <internalNodes>
            0 -1 510 2.3469626903533936e-03</internalNodes>
          <leafValues>
            2.0132660865783691e-01 -7.8573340177536011e-01</leafValues></_>
        <_>
          <internalNodes>
            0 -1 394 -1.0831745713949203e-01</internalNodes>
          <leafValues>
            7.3392862081527710e-01 -2.4742561578750610e-01</leafValues></_>
        <_>
          <internalNodes>
            0 -1 280 5.6507185101509094e-02</internalNodes>
          <leafValues>
            -1.6313512623310089e-01 7.5421994924545288e-01</leafValues></_>
        <_>
          <internalNodes>
            0 -1 90 -3.1054548453539610e-03</internalNodes>
          <leafValues>
            -8.4938150644302368e-01 1.8337239325046539e-01</leafValues></_>
        <_>
          <internalNodes>
            0 -1 320 -8.5382044315338135e-02</internalNodes>
          <leafValues>
            6.9758987426757813e-01 -2.1927788853645325e-01</leafValues></_>
        <_>
          <internalNodes>
            0 -1 244 1.1892163753509521e-01</internalNodes>
          <leafValues>
            -1.6733966767787933e-01 8.3448302745819092e-01</leafValues></_>
        <_>
          <internalNodes>
            0 -1 47 2.7117813006043434e-03</internalNodes>
          <leafValues>
            1.8054220080375671e-01 -8.5689193010330200e-01</leafValues></_>
        <_>
          <internalNodes>
            0 -1 303 -4.5657880604267120e-02</internalNodes>
          <leafValues>
            9.8864370584487915e-01 -1.7438656091690063e-01</leafValues></_>
        <_>
          <internalNodes>
            0 -1 208 -4.5893555879592896e-01</internalNodes>
          <leafValues>
            -1.0896743088960648e-01 9.1642159223556519e-01</leafValues></_></weakClassifiers></_>
    <!-- stage 4 -->
    <_>
      <maxWeakCount>27</maxWeakCount>
      <stageThreshold>-1.4283808469772339e+00</stageThreshold>
      <weakClassifiers>
        <_>
          <internalNodes>
            0 -1 329 -1.8708121031522751e-02</internalNodes>
          <leafValues>
            7.6842105388641357e-01 -5.8006644248962402e-01</leafValues></_>
        <_>
          <internalNodes>
            0 -1 546 4.5977113768458366e-03</internalNodes>
          <leafValues>
            4.3609321117401123e-02 -7.9894769191741943e-01</leafValues></_>
        <_>
          <internalNodes>
            0 -1 25 -1.5577143989503384e-02</internalNodes>
          <leafValues>
            -8.6282718181610107e-01 1.2234511226415634e-01</leafValues></_>
        <_>
          <internalNodes>
            0 -1 23 6.2170000746846199e-03</internalNodes>
          <leafValues>
            1.8684399127960205e-01 -7.6667547225952148e-01</leafValues></_>
        <_>
          <internalNodes>
            0 -1 256 -4.3862789869308472e-02</internalNodes>
          <leafValues>
            8.5658609867095947e-01 -1.8409343063831329e-01</leafValues></_>
        <_>
          <internalNodes>
            0 -1 334 1.3268168084323406e-02</internalNodes>
          <leafValues>
            -1.4211475849151611e-01 6.4370048046112061e-01</leafValues></_>
        <_>
          <internalNodes>
            0 -1 174 -9.1140028089284897e-03</internalNodes>
          <leafValues>
            -7.7110159397125244e-01 1.4029267430305481e-01</leafValues></_>
        <_>
          <internalNodes>
            0 -1 272 -2.3229947686195374e-01</internalNodes>
          <leafValues>
            1.2199450284242630e-01 -8.6115801334381104e-01</leafValues></_>
        <_>
          <internalNodes>
            0 -1 13 3.2911936286836863e-03</internalNodes>
          <leafValues>
            1.8565237522125244e-01 -5.9779477119445801e-01</leafValues></_>
        <_>
          <internalNodes>
            0 -1 453 1.8661794019863009e-03</internalNodes>
          <leafValues>
            8.7210677564144135e-02 -8.1309700012207031e-01</leafValues></_>
        <_>
          <internalNodes>
            0 -1 526 1.8930523656308651e-03</internalNodes>
          <leafValues>
            8.0588839948177338e-02 -9.0494716167449951e-01</leafValues></_>
        <_>
          <internalNodes>
            0 -1 351 4.5159845612943172e-03</internalNodes>
          <leafValues>
            -2.3214621841907501e-01 4.4080382585525513e-01</leafValues></_>
        <_>
          <internalNodes>
            0 -1 30 -1.0667039081454277e-02</internalNodes>
          <leafValues>
            -8.0438250303268433e-01 1.2302169203758240e-01</leafValues></_>
        <_>
          <internalNodes>
            0 -1 6 5.2881315350532532e-03</internalNodes>
          <leafValues>
            9.3864358961582184e-02 -7.8581559658050537e-01</leafValues></_>
        <_>
          <internalNodes>
            0 -1 462 1.0079536586999893e-02</internalNodes>
          <leafValues>
            -1.4658974111080170e-01 6.7180353403091431e-01</leafValues></_>
        <_>
          <internalNodes>
            0 -1 314 -3.3684708178043365e-02</internalNodes>
          <leafValues>
            6.4248085021972656e-01 -1.1306414008140564e-01</leafValues></_>
        <_>
          <internalNodes>
            0 -1 347 8.6973812431097031e-03</internalNodes>
          <leafValues>
            1.2372165173292160e-01 -6.8992120027542114e-01</leafValues></_>
        <_>
          <internalNodes>
            0 -1 139 -2.2437185049057007e-02</internalNodes>
          <leafValues>
            8.1572294235229492e-02 -8.6579966545104980e-01</leafValues></_>
        <_>
          <internalNodes>
            0 -1 81 -5.7560242712497711e-03</internalNodes>
          <leafValues>
            -5.1845741271972656e-01 1.5784999728202820e-01</leafValues></_>
        <_>
          <internalNodes>
            0 -1 62 -5.0451704300940037e-03</internalNodes>
          <leafValues>
            -7.6299184560775757e-01 9.6525616943836212e-02</leafValues></_>
        <_>
          <internalNodes>
            0 -1 371 -1.5165143413469195e-03</internalNodes>
          <leafValues>
            -7.4963366985321045e-01 8.3045698702335358e-02</leafValues></_>
        <_>
          <internalNodes>
            0 -1 78 -1.9814997911453247e-02</internalNodes>
          <leafValues>
            -6.8846738338470459e-01 9.0080544352531433e-02</leafValues></_>
        <_>
          <internalNodes>
            0 -1 304 -3.9773546159267426e-03</internalNodes>
          <leafValues>
            3.7298303842544556e-01 -2.0111642777919769e-01</leafValues></_>
        <_>
          <internalNodes>
            0 -1 355 -4.9035595729947090e-03</internalNodes>
          <leafValues>
            7.9473209381103516e-01 -9.1675877571105957e-02</leafValues></_>
        <_>
          <internalNodes>
            0 -1 454 9.5608178526163101e-04</internalNodes>
          <leafValues>
            1.5728412568569183e-01 -5.4365271329879761e-01</leafValues></_>
        <_>
          <internalNodes>
            0 -1 121 6.2037492170929909e-03</internalNodes>
          <leafValues>
            8.8533185422420502e-02 -7.1090662479400635e-01</leafValues></_>
        <_>
          <internalNodes>
            0 -1 299 9.0178903192281723e-03</internalNodes>
          <leafValues>
            -1.4209060370922089e-01 5.9079962968826294e-01</leafValues></_></weakClassifiers></_>
    <!-- stage 5 -->
    <_>
      <maxWeakCount>17</maxWeakCount>
      <stageThreshold>-1.3016200065612793e+00</stageThreshold>
      <weakClassifiers>
        <_>
          <internalNodes>
            0 -1 0 -3.1579136848449707e-01</internalNodes>
          <leafValues>
            -1. -2.5373134016990662e-01</leafValues></_>
        <_>
          <internalNodes>
            0 -1 219 -6.4248204231262207e-02</internalNodes>
          <leafValues>
            6.1981636285781860e-01 -3.3238172531127930e-01</leafValues></_>
        <_>
          <internalNodes>
            0 -1 0 -3.1579136848449707e-01</internalNodes>
          <leafValues>
            -1. 1.5995371341705322e-01</leafValues></_>
        <_>
          <internalNodes>
            0 -1 261 -1.1057487130165100e-01</internalNodes>
          <leafValues>
            1.9742098450660706e-01 -7.9185587167739868e-01</leafValues></_>
        <_>
          <internalNodes>
            0 -1 370 3.5929866135120392e-02</internalNodes>
          <leafValues>
            -2.7860194444656372e-01 7.5607216358184814e-01</leafValues></_>
        <_>
          <internalNodes>
            0 -1 324 -2.4285538122057915e-02</internalNodes>
          <leafValues>
            8.8176125288009644e-01 -9.7394309937953949e-02</leafValues></_>
        <_>
          <internalNodes>
            0 -1 279 3.8557805120944977e-02</internalNodes>
          <leafValues>
            -4.8775974661111832e-02 7.9029899835586548e-01</leafValues></_>
        <_>
          <internalNodes>
            0 -1 378 -2.0066075026988983e-02</internalNodes>
          <leafValues>
            6.3780874013900757e-01 -1.6148340702056885e-01</leafValues></_>
        <_>
          <internalNodes>
            0 -1 356 2.0460009574890137e-02</internalNodes>
          <leafValues>
            -1.1457301676273346e-01 7.6342082023620605e-01</leafValues></_>
        <_>
          <internalNodes>
            0 -1 41 1.7450952529907227e-01</internalNodes>
          <leafValues>
            2.1095445752143860e-01 -4.9429589509963989e-01</leafValues></_>
        <_>
          <internalNodes>
            0 -1 536 1.8662642687559128e-03</internalNodes>
          <leafValues>
            1.2438533455133438e-01 -6.3049787282943726e-01</leafValues></_>
        <_>
          <internalNodes>
            0 -1 67 -3.6147702485322952e-03</internalNodes>
          <leafValues>
            -8.1402790546417236e-01 8.0565690994262695e-02</leafValues></_>
        <_>
          <internalNodes>
            0 -1 88 6.4105585217475891e-02</internalNodes>
          <leafValues>
            -1.4201736450195313e-01 5.7043761014938354e-01</leafValues></_>
        <_>
          <internalNodes>
            0 -1 332 2.5853481143712997e-02</internalNodes>
          <leafValues>
            -9.2455253005027771e-02 7.9264658689498901e-01</leafValues></_>
        <_>
          <internalNodes>
            0 -1 473 -1.3199402019381523e-04</internalNodes>
          <leafValues>
            2.6663705706596375e-01 -3.0855074524879456e-01</leafValues></_>
        <_>
          <internalNodes>
            0 -1 112 -6.4131245017051697e-02</internalNodes>
          <leafValues>
            5.6588780879974365e-01 -1.4267528057098389e-01</leafValues></_>
        <_>
          <internalNodes>
            0 -1 338 -8.4988249000161886e-04</internalNodes>
          <leafValues>
            3.1182920932769775e-01 -2.6752564311027527e-01</leafValues></_></weakClassifiers></_>
    <!-- stage 6 -->
    <_>
      <maxWeakCount>24</maxWeakCount>
      <stageThreshold>-1.5295574665069580e+00</stageThreshold>
      <weakClassifiers>
        <_>
          <internalNodes>
            0 -1 348 -3.0733082443475723e-02</internalNodes>
          <leafValues>
            7.8217822313308716e-01 -5.8639091253280640e-01</leafValues></_>
        <_>
          <internalNodes>
            0 -1 359 1.6228271648287773e-02</internalNodes>
          <leafValues>
            -3.0204114317893982e-01 6.5197604894638062e-01</leafValues></_>
        <_>
          <internalNodes>
            0 -1 19 -3.9502739906311035e-01</internalNodes>
          <leafValues>
            -8.0328887701034546e-01 2.2477494180202484e-01</leafValues></_>
        <_>
          <internalNodes>
            0 -1 259 -3.0067507177591324e-02</internalNodes>
          <leafValues>
            4.4718906283378601e-01 -2.5176531076431274e-01</leafValues></_>
        <_>
          <internalNodes>
            0 -1 176 -4.0449047088623047e-01</internalNodes>
          <leafValues>
            -7.0005476474761963e-01 1.7183692753314972e-01</leafValues></_>
        <_>
          <internalNodes>
            0 -1 31 2.1416196227073669e-01</internalNodes>
          <leafValues>
            1.4217670261859894e-01 -8.3468073606491089e-01</leafValues></_>
        <_>
          <internalNodes>
            0 -1 318 2.6400238275527954e-02</internalNodes>
          <leafValues>
            -1.8474873900413513e-01 6.1264789104461670e-01</leafValues></_>
        <_>
          <internalNodes>
            0 -1 376 9.5422212034463882e-03</internalNodes>
          <leafValues>
            -1.2857812643051147e-01 6.6393983364105225e-01</leafValues></_>
        <_>
          <internalNodes>
            0 -1 18 3.4075635671615601e-01</internalNodes>
          <leafValues>
            1.1050128191709518e-01 -7.9810672998428345e-01</leafValues></_>
        <_>
          <internalNodes>
            0 -1 434 -4.1980072855949402e-03</internalNodes>
          <leafValues>
            -6.7711222171783447e-01 9.3125745654106140e-02</leafValues></_>
        <_>
          <internalNodes>
            0 -1 154 -2.9452644288539886e-02</internalNodes>
          <leafValues>
            5.8571928739547729e-01 -1.3200014829635620e-01</leafValues></_>
        <_>
          <internalNodes>
            0 -1 212 3.0137289315462112e-02</internalNodes>
          <leafValues>
            -9.1783292591571808e-02 6.9996058940887451e-01</leafValues></_>
        <_>
          <internalNodes>
            0 -1 530 2.0346194505691528e-03</internalNodes>
          <leafValues>
            1.0058464109897614e-01 -8.1747561693191528e-01</leafValues></_>
        <_>
          <internalNodes>
            0 -1 426 -1.5875801444053650e-02</internalNodes>
          <leafValues>
            5.7388377189636230e-01 -1.4799852669239044e-01</leafValues></_>
        <_>
          <internalNodes>
            0 -1 262 1.0280106216669083e-02</internalNodes>
          <leafValues>
            -8.3305262029170990e-02 6.9563138484954834e-01</leafValues></_>
        <_>
          <internalNodes>
            0 -1 173 4.5802436769008636e-02</internalNodes>
          <leafValues>
            -1.2148480117321014e-01 6.3120925426483154e-01</leafValues></_>
        <_>
          <internalNodes>
            0 -1 540 1.4049297198653221e-02</internalNodes>
          <leafValues>
            9.9702693521976471e-02 -9.5157241821289063e-01</leafValues></_>
        <_>
          <internalNodes>
            0 -1 305 4.8954125493764877e-02</internalNodes>
          <leafValues>
            -1.3622345030307770e-01 6.9139653444290161e-01</leafValues></_>
        <_>
          <internalNodes>
            0 -1 151 1.2644315138459206e-03</internalNodes>
          <leafValues>
            -2.3005475103855133e-01 3.4284710884094238e-01</leafValues></_>
        <_>
          <internalNodes>
            0 -1 339 -6.8043228238821030e-03</internalNodes>
          <leafValues>
            3.8054427504539490e-01 -1.9100344181060791e-01</leafValues></_>
        <_>
          <internalNodes>
            0 -1 89 -6.6585347056388855e-02</internalNodes>
          <leafValues>
            7.6483273506164551e-01 -1.1294221132993698e-01</leafValues></_>
        <_>
          <internalNodes>
            0 -1 77 -1.6283307224512100e-02</internalNodes>
          <leafValues>
            -4.7072103619575500e-01 1.8925330042839050e-01</leafValues></_>
        <_>
          <internalNodes>
            0 -1 233 -3.6513514816761017e-02</internalNodes>
          <leafValues>
            7.7275973558425903e-01 -1.0867297649383545e-01</leafValues></_>
        <_>
          <internalNodes>
            0 -1 484 -8.8412576587870717e-05</internalNodes>
          <leafValues>
            2.7054965496063232e-01 -2.3734264075756073e-01</leafValues></_></weakClassifiers></_>
    <!-- stage 7 -->
    <_>
      <maxWeakCount>35</maxWeakCount>
      <stageThreshold>-1.5207408666610718e+00</stageThreshold>
      <weakClassifiers>
        <_>
          <internalNodes>
            0 -1 226 8.8464401662349701e-02</internalNodes>
          <leafValues>
            -5.5874675512313843e-01 8.2352942228317261e-01</leafValues></_>
        <_>
          <internalNodes>
            0 -1 425 -8.8132426142692566e-02</internalNodes>
          <leafValues>
            -4.4148194789886475e-01 2.6500090956687927e-01</leafValues></_>
        <_>
          <internalNodes>
            0 -1 7 -4.5549083501100540e-02</internalNodes>
          <leafValues>
            -7.4544543027877808e-01 1.2046581506729126e-01</leafValues></_>
        <_>
          <internalNodes>
            0 -1 257 -5.9261910617351532e-02</internalNodes>
          <leafValues>
            7.9679876565933228e-01 -1.0054751485586166e-01</leafValues></_>
        <_>
          <internalNodes>
            0 -1 255 2.6491494849324226e-02</internalNodes>
          <leafValues>
            -4.9928128719329834e-02 8.0908912420272827e-01</leafValues></_>
        <_>
          <internalNodes>
            0 -1 290 -1.8011450767517090e-02</internalNodes>
          <leafValues>
            6.6611462831497192e-01 -9.1174572706222534e-02</leafValues></_>
        <_>
          <internalNodes>
            0 -1 33 6.2850518152117729e-03</internalNodes>
          <leafValues>
            1.1656489223241806e-01 -6.6334867477416992e-01</leafValues></_>
        <_>
          <internalNodes>
            0 -1 0 -3.5802710056304932e-01</internalNodes>
          <leafValues>
            -1. 7.7063910663127899e-02</leafValues></_>
        <_>
          <internalNodes>
            0 -1 360 5.3616896271705627e-02</internalNodes>
          <leafValues>
            -1.5382005274295807e-01 5.3186190128326416e-01</leafValues></_>
        <_>
          <internalNodes>
            0 -1 421 -5.6676015257835388e-02</internalNodes>
          <leafValues>
            6.5111649036407471e-01 -1.2747788429260254e-01</leafValues></_>
        <_>
          <internalNodes>
            0 -1 534 3.3178315497934818e-03</internalNodes>
          <leafValues>
            1.1508511006832123e-01 -6.6559177637100220e-01</leafValues></_>
        <_>
          <internalNodes>
            0 -1 361 -4.5820362865924835e-02</internalNodes>
          <leafValues>
            1.4112375676631927e-01 -4.4603437185287476e-01</leafValues></_>
        <_>
          <internalNodes>
            0 -1 533 4.5273080468177795e-03</internalNodes>
          <leafValues>
            7.3363944888114929e-02 -7.0388150215148926e-01</leafValues></_>
        <_>
          <internalNodes>
            0 -1 76 -1.5046617481857538e-03</internalNodes>
          <leafValues>
            -7.1550637483596802e-01 7.6799012720584869e-02</leafValues></_>
        <_>
          <internalNodes>
            0 -1 523 -6.3502816483378410e-03</internalNodes>
          <leafValues>
            -6.8876981735229492e-01 6.8362116813659668e-02</leafValues></_>
        <_>
          <internalNodes>
            0 -1 427 -2.6694306870922446e-04</internalNodes>
          <leafValues>
            2.9625737667083740e-01 -1.9764427840709686e-01</leafValues></_>
        <_>
          <internalNodes>
            0 -1 418 -1.1015036143362522e-02</internalNodes>
          <leafValues>
            5.8804982900619507e-01 -8.5183195769786835e-02</leafValues></_>
        <_>
          <internalNodes>
            0 -1 380 1.4109740033745766e-02</internalNodes>
          <leafValues>
            -8.7159723043441772e-02 7.1482938528060913e-01</leafValues></_>
        <_>
          <internalNodes>
            0 -1 539 5.3988564759492874e-03</internalNodes>
          <leafValues>
            1.0306895524263382e-01 -6.4280062913894653e-01</leafValues></_>
        <_>
          <internalNodes>
            0 -1 201 -2.5055650621652603e-03</internalNodes>
          <leafValues>
            -5.4957538843154907e-01 9.2161335051059723e-02</leafValues></_>
        <_>
          <internalNodes>
            0 -1 177 -7.7091646380722523e-04</internalNodes>
          <leafValues>
            2.7157491445541382e-01 -2.1561184525489807e-01</leafValues></_>
        <_>
          <internalNodes>
            0 -1 358 1.8100887537002563e-02</internalNodes>
          <leafValues>
            -9.0929992496967316e-02 5.9350585937500000e-01</leafValues></_>
        <_>
          <internalNodes>
            0 -1 184 -1.6333153471350670e-02</internalNodes>
          <leafValues>
            4.1453394293785095e-01 -1.2466392666101456e-01</leafValues></_>
        <_>
          <internalNodes>
            0 -1 137 4.9759052693843842e-02</internalNodes>
          <leafValues>
            -1.2163074314594269e-01 4.9759554862976074e-01</leafValues></_>
        <_>
          <internalNodes>
            0 -1 345 -8.8845728896558285e-04</internalNodes>
          <leafValues>
            2.1467167139053345e-01 -2.5254651904106140e-01</leafValues></_>
        <_>
          <internalNodes>
            0 -1 514 -6.3174031674861908e-03</internalNodes>
          <leafValues>
            -6.6938436031341553e-01 9.4074748456478119e-02</leafValues></_>
        <_>
          <internalNodes>
            0 -1 1 3.0245927628129721e-03</internalNodes>
          <leafValues>
            6.4929544925689697e-02 -7.0564639568328857e-01</leafValues></_>
        <_>
          <internalNodes>
            0 -1 448 1.6526235267519951e-03</internalNodes>
          <leafValues>
            -1.4670392870903015e-01 3.7761074304580688e-01</leafValues></_>
        <_>
          <internalNodes>
            0 -1 276 -2.2716897074133158e-03</internalNodes>
          <leafValues>
            -8.5461795330047607e-01 6.5619409084320068e-02</leafValues></_>
        <_>
          <internalNodes>
            0 -1 197 2.2303614020347595e-01</internalNodes>
          <leafValues>
            3.6449518054723740e-02 -9.9097639322280884e-01</leafValues></_>
        <_>
          <internalNodes>
            0 -1 119 2.8773869853466749e-03</internalNodes>
          <leafValues>
            3.3113703131675720e-02 -9.8655545711517334e-01</leafValues></_>
        <_>
          <internalNodes>
            0 -1 199 -2.5250941514968872e-01</internalNodes>
          <leafValues>
            -5.1159018278121948e-01 1.0324206203222275e-01</leafValues></_>
        <_>
          <internalNodes>
            0 -1 556 1.1419833172112703e-03</internalNodes>
          <leafValues>
            8.8434927165508270e-02 -5.6034255027770996e-01</leafValues></_>
        <_>
          <internalNodes>
            0 -1 362 -3.1848642975091934e-03</internalNodes>
          <leafValues>
            3.9477306604385376e-01 -1.6623699665069580e-01</leafValues></_>
        <_>
          <internalNodes>
            0 -1 146 4.8341177171096206e-04</internalNodes>
          <leafValues>
            -2.2315324842929840e-01 2.8022405505180359e-01</leafValues></_></weakClassifiers></_>
    <!-- stage 8 -->
    <_>
      <maxWeakCount>45</maxWeakCount>
      <stageThreshold>-1.5125272274017334e+00</stageThreshold>
      <weakClassifiers>
        <_>
          <internalNodes>
            0 -1 352 -2.3208949714899063e-02</internalNodes>
          <leafValues>
            4.8514851927757263e-01 -5.6637758016586304e-01</leafValues></_>
        <_>
          <internalNodes>
            0 -1 16 -1.0598762892186642e-02</internalNodes>
          <leafValues>
            -6.3955867290496826e-01 6.3949845731258392e-02</leafValues></_>
        <_>
          <internalNodes>
            0 -1 368 2.9862182214856148e-02</internalNodes>
          <leafValues>
            -1.3561630249023438e-01 6.1352211236953735e-01</leafValues></_>
        <_>
          <internalNodes>
            0 -1 243 -7.5683414936065674e-02</internalNodes>
          <leafValues>
            5.1227891445159912e-01 -1.8984271585941315e-01</leafValues></_>
        <_>
          <internalNodes>
            0 -1 171 7.4089039117097855e-03</internalNodes>
          <leafValues>
            1.9717352092266083e-01 -4.9590194225311279e-01</leafValues></_>
        <_>
          <internalNodes>
            0 -1 294 1.9791362807154655e-02</internalNodes>
          <leafValues>
            -1.4790700376033783e-01 6.2487864494323730e-01</leafValues></_>
        <_>
          <internalNodes>
            0 -1 326 -5.9497799724340439e-02</internalNodes>
          <leafValues>
            5.7890033721923828e-01 -9.7018696367740631e-02</leafValues></_>
        <_>
          <internalNodes>
            0 -1 366 -1.3937378302216530e-02</internalNodes>
          <leafValues>
            -7.9256647825241089e-01 7.3393940925598145e-02</leafValues></_>
        <_>
          <internalNodes>
            0 -1 291 -5.1006648689508438e-02</internalNodes>
          <leafValues>
            8.4887301921844482e-01 -6.0168694704771042e-02</leafValues></_>
        <_>
          <internalNodes>
            0 -1 10 3.9966078475117683e-03</internalNodes>
          <leafValues>
            1.0621390491724014e-01 -5.7322567701339722e-01</leafValues></_>
        <_>
          <internalNodes>
            0 -1 500 -7.9027842730283737e-04</internalNodes>
          <leafValues>
            3.0396789312362671e-01 -1.8962788581848145e-01</leafValues></_>
        <_>
          <internalNodes>
            0 -1 74 -1.7058622324839234e-03</internalNodes>
          <leafValues>
            -7.5273990631103516e-01 9.0759061276912689e-02</leafValues></_>
        <_>
          <internalNodes>
            0 -1 80 -1.0237513110041618e-02</internalNodes>
          <leafValues>
            -7.5005406141281128e-01 5.6716304272413254e-02</leafValues></_>
        <_>
          <internalNodes>
            0 -1 400 2.9539391398429871e-02</internalNodes>
          <leafValues>
            -9.5724910497665405e-02 6.2757670879364014e-01</leafValues></_>
        <_>
          <internalNodes>
            0 -1 187 -3.4766742028295994e-03</internalNodes>
          <leafValues>
            2.7006843686103821e-01 -1.7729219794273376e-01</leafValues></_>
        <_>
          <internalNodes>
            0 -1 165 7.6965880580246449e-03</internalNodes>
          <leafValues>
            -1.4228789508342743e-01 4.0850552916526794e-01</leafValues></_>
        <_>
          <internalNodes>
            0 -1 27 -1.0594572871923447e-02</internalNodes>
          <leafValues>
            -6.8030542135238647e-01 9.1005474328994751e-02</leafValues></_>
        <_>
          <internalNodes>
            0 -1 73 5.2729547023773193e-03</internalNodes>
          <leafValues>
            5.7181570678949356e-02 -6.6964709758758545e-01</leafValues></_>
        <_>
          <internalNodes>
            0 -1 98 -1.0402493178844452e-02</internalNodes>
          <leafValues>
            -8.8782501220703125e-01 5.4132737219333649e-02</leafValues></_>
        <_>
          <internalNodes>
            0 -1 293 5.7156994007527828e-03</internalNodes>
          <leafValues>
            -8.5952006280422211e-02 7.6216977834701538e-01</leafValues></_>
        <_>
          <internalNodes>
            0 -1 298 -1.7282689805142581e-04</internalNodes>
          <leafValues>
            2.6533606648445129e-01 -1.9337986409664154e-01</leafValues></_>
        <_>
          <internalNodes>
            0 -1 36 4.6957479789853096e-03</internalNodes>
          <leafValues>
            4.9743883311748505e-02 -9.6863025426864624e-01</leafValues></_>
        <_>
          <internalNodes>
            0 -1 449 -8.8675823062658310e-03</internalNodes>
          <leafValues>
            2.5240159034729004e-01 -1.8569032847881317e-01</leafValues></_>
        <_>
          <internalNodes>
            0 -1 555 -4.0325336158275604e-03</internalNodes>
          <leafValues>
            -5.2404314279556274e-01 9.1790571808815002e-02</leafValues></_>
        <_>
          <internalNodes>
            0 -1 211 -5.6035038083791733e-02</internalNodes>
          <leafValues>
            7.4975836277008057e-01 -7.6690845191478729e-02</leafValues></_>
        <_>
          <internalNodes>
            0 -1 435 -3.0002882704138756e-03</internalNodes>
          <leafValues>
            -6.8882220983505249e-01 8.2801632583141327e-02</leafValues></_>
        <_>
          <internalNodes>
            0 -1 516 -2.0551046356558800e-02</internalNodes>
          <leafValues>
            -7.8580886125564575e-01 4.6435683965682983e-02</leafValues></_>
        <_>
          <internalNodes>
            0 -1 131 -5.2477452903985977e-02</internalNodes>
          <leafValues>
            4.1100931167602539e-01 -1.1920118331909180e-01</leafValues></_>
        <_>
          <internalNodes>
            0 -1 156 5.0626430660486221e-02</internalNodes>
          <leafValues>
            -6.0557544231414795e-02 7.1393984556198120e-01</leafValues></_>
        <_>
          <internalNodes>
            0 -1 160 2.4739094078540802e-03</internalNodes>
          <leafValues>
            -1.5273123979568481e-01 3.0251967906951904e-01</leafValues></_>
        <_>
          <internalNodes>
            0 -1 45 -5.7252449914813042e-03</internalNodes>
          <leafValues>
            2.2739477455615997e-01 -2.1714517474174500e-01</leafValues></_>
        <_>
          <internalNodes>
            0 -1 433 9.4313379377126694e-03</internalNodes>
          <leafValues>
            6.9415271282196045e-02 -7.0619964599609375e-01</leafValues></_>
        <_>
          <internalNodes>
            0 -1 61 -6.5491655841469765e-03</internalNodes>
          <leafValues>
            -1. 3.3302783966064453e-02</leafValues></_>
        <_>
          <internalNodes>
            0 -1 374 1.7155742645263672e-01</internalNodes>
          <leafValues>
            -7.4500270187854767e-02 7.5593745708465576e-01</leafValues></_>
        <_>
          <internalNodes>
            0 -1 444 3.8866579532623291e-02</internalNodes>
          <leafValues>
            -5.1494531333446503e-02 7.1753317117691040e-01</leafValues></_>
        <_>
          <internalNodes>
            0 -1 99 1.5867300680838525e-04</internalNodes>
          <leafValues>
            -2.1320998668670654e-01 2.3493464291095734e-01</leafValues></_>
        <_>
          <internalNodes>
            0 -1 550 1.6790075460448861e-03</internalNodes>
          <leafValues>
            8.8313356041908264e-02 -4.7622466087341309e-01</leafValues></_>
        <_>
          <internalNodes>
            0 -1 188 3.0449288897216320e-04</internalNodes>
          <leafValues>
            -1.6226467490196228e-01 2.7163574099540710e-01</leafValues></_>
        <_>
          <internalNodes>
            0 -1 266 6.0010775923728943e-03</internalNodes>
          <leafValues>
            -1.1912616342306137e-01 3.8548916578292847e-01</leafValues></_>
        <_>
          <internalNodes>
            0 -1 296 -4.7177661210298538e-02</internalNodes>
          <leafValues>
            6.9551682472229004e-01 -6.7084468901157379e-02</leafValues></_>
        <_>
          <internalNodes>
            0 -1 142 -1.7407391220331192e-02</internalNodes>
          <leafValues>
            3.6621877551078796e-01 -1.2547688186168671e-01</leafValues></_>
        <_>
          <internalNodes>
            0 -1 408 2.1874703816138208e-04</internalNodes>
          <leafValues>
            2.0106546580791473e-01 -2.6434305310249329e-01</leafValues></_>
        <_>
          <internalNodes>
            0 -1 288 3.3355168998241425e-02</internalNodes>
          <leafValues>
            -6.4946413040161133e-02 8.2773119211196899e-01</leafValues></_>
        <_>
          <internalNodes>
            0 -1 148 -1.6244612634181976e-02</internalNodes>
          <leafValues>
            3.7515857815742493e-01 -1.2053476274013519e-01</leafValues></_>
        <_>
          <internalNodes>
            0 -1 474 -6.3225044868886471e-05</internalNodes>
          <leafValues>
            2.3272313177585602e-01 -2.2734984755516052e-01</leafValues></_></weakClassifiers></_>
    <!-- stage 9 -->
    <_>
      <maxWeakCount>44</maxWeakCount>
      <stageThreshold>-1.1388258934020996e+00</stageThreshold>
      <weakClassifiers>
        <_>
          <internalNodes>
            0 -1 328 -7.4792824685573578e-02</internalNodes>
          <leafValues>
            3.9655172824859619e-01 -5.7008087635040283e-01</leafValues></_>
        <_>
          <internalNodes>
            0 -1 404 1.6559746116399765e-02</internalNodes>
          <leafValues>
            -1.7482875287532806e-01 5.2887487411499023e-01</leafValues></_>
        <_>
          <internalNodes>
            0 -1 325 -2.3064989596605301e-02</internalNodes>
          <leafValues>
            7.0888561010360718e-01 -6.9464296102523804e-02</leafValues></_>
        <_>
          <internalNodes>
            0 -1 301 -2.8865101933479309e-01</internalNodes>
          <leafValues>
            -3.4179258346557617e-01 1.4966189861297607e-01</leafValues></_>
        <_>
          <internalNodes>
            0 -1 271 -7.8620789572596550e-03</internalNodes>
          <leafValues>
            -9.3272829055786133e-01 5.7210952043533325e-02</leafValues></_>
        <_>
          <internalNodes>
            0 -1 55 3.1904250383377075e-01</internalNodes>
          <leafValues>
            5.3936045616865158e-02 -8.0523139238357544e-01</leafValues></_>
        <_>
          <internalNodes>
            0 -1 327 3.5160798579454422e-02</internalNodes>
          <leafValues>
            -9.0573236346244812e-02 4.7534832358360291e-01</leafValues></_>
        <_>
          <internalNodes>
            0 -1 52 2.4389943107962608e-02</internalNodes>
          <leafValues>
            -1.0433136671781540e-01 5.2135646343231201e-01</leafValues></_>
        <_>
          <internalNodes>
            0 -1 200 -7.1051366627216339e-02</internalNodes>
          <leafValues>
            3.4978237748146057e-01 -1.3460473716259003e-01</leafValues></_>
        <_>
          <internalNodes>
            0 -1 155 6.3998084515333176e-03</internalNodes>
          <leafValues>
            6.6064730286598206e-02 -6.4874309301376343e-01</leafValues></_>
        <_>
          <internalNodes>
            0 -1 168 -1.4608593657612801e-02</internalNodes>
          <leafValues>
            4.4794589281082153e-01 -9.1405496001243591e-02</leafValues></_>
        <_>
          <internalNodes>
            0 -1 75 -1.9822546164505184e-05</internalNodes>
          <leafValues>
            -2.0741578936576843e-01 2.0985844731330872e-01</leafValues></_>
        <_>
          <internalNodes>
            0 -1 384 -3.7943036295473576e-03</internalNodes>
          <leafValues>
            3.0892366170883179e-01 -1.3411621749401093e-01</leafValues></_>
        <_>
          <internalNodes>
            0 -1 305 4.0668491274118423e-02</internalNodes>
          <leafValues>
            -1.2771363556385040e-01 3.6435839533805847e-01</leafValues></_>
        <_>
          <internalNodes>
            0 -1 552 4.5724101364612579e-03</internalNodes>
          <leafValues>
            5.3167667239904404e-02 -8.3496665954589844e-01</leafValues></_>
        <_>
          <internalNodes>
            0 -1 21 1.9880551099777222e-01</internalNodes>
          <leafValues>
            5.6408952921628952e-02 -6.2257146835327148e-01</leafValues></_>
        <_>
          <internalNodes>
            0 -1 350 -1.6212251037359238e-02</internalNodes>
          <leafValues>
            7.1085894107818604e-01 -6.3908845186233521e-02</leafValues></_>
        <_>
          <internalNodes>
            0 -1 365 -3.1988639384508133e-03</internalNodes>
          <leafValues>
            -4.4261503219604492e-01 9.1984927654266357e-02</leafValues></_>
        <_>
          <internalNodes>
            0 -1 506 -1.4087248593568802e-02</internalNodes>
          <leafValues>
            4.2362785339355469e-01 -1.0066571831703186e-01</leafValues></_>
        <_>
          <internalNodes>
            0 -1 3 -7.1873497217893600e-03</internalNodes>
          <leafValues>
            -6.1759430170059204e-01 7.2023138403892517e-02</leafValues></_>
        <_>
          <internalNodes>
            0 -1 111 -3.6925433669239283e-03</internalNodes>
          <leafValues>
            2.5342530012130737e-01 -1.8033322691917419e-01</leafValues></_>
        <_>
          <internalNodes>
            0 -1 34 -2.1242665126919746e-02</internalNodes>
          <leafValues>
            -4.4559744000434875e-01 9.3353010714054108e-02</leafValues></_>
        <_>
          <internalNodes>
            0 -1 22 -2.4347628932446241e-03</internalNodes>
          <leafValues>
            -6.3106155395507813e-01 5.9088014066219330e-02</leafValues></_>
        <_>
          <internalNodes>
            0 -1 482 -5.7978999393526465e-05</internalNodes>
          <leafValues>
            1.8627454340457916e-01 -1.9187904894351959e-01</leafValues></_>
        <_>
          <internalNodes>
            0 -1 163 -6.8925619125366211e-02</internalNodes>
          <leafValues>
            5.6598401069641113e-01 -7.3105454444885254e-02</leafValues></_>
        <_>
          <internalNodes>
            0 -1 386 -1.4682866167277098e-03</internalNodes>
          <leafValues>
            2.7660235762596130e-01 -1.5385000407695770e-01</leafValues></_>
        <_>
          <internalNodes>
            0 -1 125 -3.2775808358564973e-04</internalNodes>
          <leafValues>
            2.4257177114486694e-01 -1.7420187592506409e-01</leafValues></_>
        <_>
          <internalNodes>
            0 -1 232 3.6016248166561127e-02</internalNodes>
          <leafValues>
            -4.5290481299161911e-02 8.4226667881011963e-01</leafValues></_>
        <_>
          <internalNodes>
            0 -1 317 -8.5728421807289124e-02</internalNodes>
          <leafValues>
            -3.1027512624859810e-02 9.5714741945266724e-01</leafValues></_>
        <_>
          <internalNodes>
            0 -1 399 -1.2672081356868148e-03</internalNodes>
          <leafValues>
            2.9042005538940430e-01 -1.4145983755588531e-01</leafValues></_>
        <_>
          <internalNodes>
            0 -1 410 -3.0254153534770012e-03</internalNodes>
          <leafValues>
            -8.0450797080993652e-01 4.5402161777019501e-02</leafValues></_>
        <_>
          <internalNodes>
            0 -1 369 -8.6000636219978333e-02</internalNodes>
          <leafValues>
            -6.0554128885269165e-01 5.2269984036684036e-02</leafValues></_>
        <_>
          <internalNodes>
            0 -1 401 -1.7997875809669495e-02</internalNodes>
          <leafValues>
            4.5768254995346069e-01 -9.1336332261562347e-02</leafValues></_>
        <_>
          <internalNodes>
            0 -1 119 -1.9556623883545399e-03</internalNodes>
          <leafValues>
            -7.2722578048706055e-01 5.7470846921205521e-02</leafValues></_>
        <_>
          <internalNodes>
            0 -1 248 6.2562217935919762e-03</internalNodes>
          <leafValues>
            -9.2601083219051361e-02 4.5384639501571655e-01</leafValues></_>
        <_>
          <internalNodes>
            0 -1 548 1.6748456982895732e-03</internalNodes>
          <leafValues>
            6.2495309859514236e-02 -6.9418340921401978e-01</leafValues></_>
        <_>
          <internalNodes>
            0 -1 492 -3.8912603631615639e-03</internalNodes>
          <leafValues>
            -8.7913852930068970e-01 3.2032106071710587e-02</leafValues></_>
        <_>
          <internalNodes>
            0 -1 387 -2.9666265472769737e-03</internalNodes>
          <leafValues>
            -7.4654877185821533e-01 3.6586653441190720e-02</leafValues></_>
        <_>
          <internalNodes>
            0 -1 440 2.0018673967570066e-03</internalNodes>
          <leafValues>
            -1.1513255536556244e-01 3.4849318861961365e-01</leafValues></_>
        <_>
          <internalNodes>
            0 -1 458 3.1237127259373665e-03</internalNodes>
          <leafValues>
            5.7739321142435074e-02 -6.9164335727691650e-01</leafValues></_>
        <_>
          <internalNodes>
            0 -1 363 -1.3208904303610325e-02</internalNodes>
          <leafValues>
            3.8315227627754211e-01 -1.0236514359712601e-01</leafValues></_>
        <_>
          <internalNodes>
            0 -1 542 -1.1162798851728439e-02</internalNodes>
          <leafValues>
            -7.1541416645050049e-01 5.3808704018592834e-02</leafValues></_>
        <_>
          <internalNodes>
            0 -1 507 7.2101611294783652e-05</internalNodes>
          <leafValues>
            1.4035272598266602e-01 -2.7484154701232910e-01</leafValues></_>
        <_>
          <internalNodes>
            0 -1 316 -2.9090940370224416e-04</internalNodes>
          <leafValues>
            1.9524364173412323e-01 -2.0424957573413849e-01</leafValues></_></weakClassifiers></_>
    <!-- stage 10 -->
    <_>
      <maxWeakCount>49</maxWeakCount>
      <stageThreshold>-9.5738047361373901e-01</stageThreshold>
      <weakClassifiers>
        <_>
          <internalNodes>
            0 -1 346 -4.4600870460271835e-02</internalNodes>
          <leafValues>
            3.8666665554046631e-01 -5.4360657930374146e-01</leafValues></_>
        <_>
          <internalNodes>
            0 -1 66 5.9143537655472755e-03</internalNodes>
          <leafValues>
            1.0155897587537766e-02 -7.7537047863006592e-01</leafValues></_>
        <_>
          <internalNodes>
            0 -1 383 -9.5747530460357666e-02</internalNodes>
          <leafValues>
            8.6702868342399597e-02 -7.7867406606674194e-01</leafValues></_>
        <_>
          <internalNodes>
            0 -1 553 3.7060999311506748e-03</internalNodes>
          <leafValues>
            8.9558668434619904e-02 -5.6835377216339111e-01</leafValues></_>
        <_>
          <internalNodes>
            0 -1 311 8.8457912206649780e-03</internalNodes>
          <leafValues>
            8.1376515328884125e-02 -5.8335238695144653e-01</leafValues></_>
        <_>
          <internalNodes>
            0 -1 312 1.7898049950599670e-01</internalNodes>
          <leafValues>
            -1.1230891197919846e-01 5.3139847517013550e-01</leafValues></_>
        <_>
          <internalNodes>
            0 -1 57 7.4441358447074890e-02</internalNodes>
          <leafValues>
            -9.3370966613292694e-02 4.9996265769004822e-01</leafValues></_>
        <_>
          <internalNodes>
            0 -1 9 -1.5636820346117020e-02</internalNodes>
          <leafValues>
            -6.2570178508758545e-01 6.0929719358682632e-02</leafValues></_>
        <_>
          <internalNodes>
            0 -1 32 2.4388262536376715e-03</internalNodes>
          <leafValues>
            4.0767841041088104e-02 -1.</leafValues></_>
        <_>
          <internalNodes>
            0 -1 541 4.3910271488130093e-03</internalNodes>
          <leafValues>
            4.9472119659185410e-02 -5.8154362440109253e-01</leafValues></_>
        <_>
          <internalNodes>
            0 -1 228 -2.2335253655910492e-02</internalNodes>
          <leafValues>
            5.5627357959747314e-01 -7.1709580719470978e-02</leafValues></_>
        <_>
          <internalNodes>
            0 -1 240 -7.9827308654785156e-03</internalNodes>
          <leafValues>
            -8.6294060945510864e-01 4.6860560774803162e-02</leafValues></_>
        <_>
          <internalNodes>
            0 -1 238 -2.0116702944505960e-04</internalNodes>
          <leafValues>
            2.3308289051055908e-01 -1.7142221331596375e-01</leafValues></_>
        <_>
          <internalNodes>
            0 -1 515 -3.8416542112827301e-02</internalNodes>
          <leafValues>
            -6.7754828929901123e-01 5.3035922348499298e-02</leafValues></_>
        <_>
          <internalNodes>
            0 -1 235 -1.3543519191443920e-02</internalNodes>
          <leafValues>
            3.1772431731224060e-01 -1.2827305495738983e-01</leafValues></_>
        <_>
          <internalNodes>
            0 -1 308 8.6173014715313911e-03</internalNodes>
          <leafValues>
            5.2819460630416870e-02 -8.7206161022186279e-01</leafValues></_>
        <_>
          <internalNodes>
            0 -1 95 7.5337365269660950e-03</internalNodes>
          <leafValues>
            4.0593951940536499e-02 -6.9876962900161743e-01</leafValues></_>
        <_>
          <internalNodes>
            0 -1 405 9.1946910833939910e-04</internalNodes>
          <leafValues>
            -1.2881045043468475e-01 2.9481539130210876e-01</leafValues></_>
        <_>
          <internalNodes>
            0 -1 68 5.2628545090556145e-03</internalNodes>
          <leafValues>
            4.8772606998682022e-02 -8.7087386846542358e-01</leafValues></_>
        <_>
          <internalNodes>
            0 -1 198 -9.5574952661991119e-02</internalNodes>
          <leafValues>
            4.7376558184623718e-01 -8.3966054022312164e-02</leafValues></_>
        <_>
          <internalNodes>
            0 -1 397 2.8354030102491379e-02</internalNodes>
          <leafValues>
            -6.3706815242767334e-02 5.8959889411926270e-01</leafValues></_>
        <_>
          <internalNodes>
            0 -1 414 2.5868811644613743e-04</internalNodes>
          <leafValues>
            -1.6140203177928925e-01 2.5502946972846985e-01</leafValues></_>
        <_>
          <internalNodes>
            0 -1 242 1.5734815970063210e-03</internalNodes>
          <leafValues>
            5.3175915032625198e-02 -7.0836907625198364e-01</leafValues></_>
        <_>
          <internalNodes>
            0 -1 286 -4.7484608367085457e-03</internalNodes>
          <leafValues>
            3.3169063925743103e-01 -1.2756966054439545e-01</leafValues></_>
        <_>
          <internalNodes>
            0 -1 58 1.4701028703711927e-04</internalNodes>
          <leafValues>
            -1.6360494494438171e-01 2.1706229448318481e-01</leafValues></_>
        <_>
          <internalNodes>
            0 -1 4 4.8783058300614357e-03</internalNodes>
          <leafValues>
            5.7456281036138535e-02 -6.7187106609344482e-01</leafValues></_>
        <_>
          <internalNodes>
            0 -1 450 -5.0692033255472779e-05</internalNodes>
          <leafValues>
            1.8198800086975098e-01 -2.0550094544887543e-01</leafValues></_>
        <_>
          <internalNodes>
            0 -1 69 -9.8016168922185898e-03</internalNodes>
          <leafValues>
            -8.1827336549758911e-01 4.5616626739501953e-02</leafValues></_>
        <_>
          <internalNodes>
            0 -1 118 -2.6813161373138428e-01</internalNodes>
          <leafValues>
            5.7809174060821533e-01 -6.7948572337627411e-02</leafValues></_>
        <_>
          <internalNodes>
            0 -1 254 -9.4663148047402501e-04</internalNodes>
          <leafValues>
            2.6563492417335510e-01 -1.4319965243339539e-01</leafValues></_>
        <_>
          <internalNodes>
            0 -1 498 1.1037767762900330e-05</internalNodes>
          <leafValues>
            -1.6177347302436829e-01 2.1336443722248077e-01</leafValues></_>
        <_>
          <internalNodes>
            0 -1 545 7.4352552182972431e-03</internalNodes>
          <leafValues>
            3.9424404501914978e-02 -8.4429180622100830e-01</leafValues></_>
        <_>
          <internalNodes>
            0 -1 436 -3.7439279258251190e-03</internalNodes>
          <leafValues>
            -5.6800210475921631e-01 4.9472246319055557e-02</leafValues></_>
        <_>
          <internalNodes>
            0 -1 491 6.4616044983267784e-03</internalNodes>
          <leafValues>
            -6.5884687006473541e-02 5.3994041681289673e-01</leafValues></_>
        <_>
          <internalNodes>
            0 -1 354 -1.2548508122563362e-02</internalNodes>
          <leafValues>
            4.6250462532043457e-01 -6.9317944347858429e-02</leafValues></_>
        <_>
          <internalNodes>
            0 -1 415 2.8947168961167336e-02</internalNodes>
          <leafValues>
            -4.2913172394037247e-02 7.8289431333541870e-01</leafValues></_>
        <_>
          <internalNodes>
            0 -1 442 -8.3824867033399642e-05</internalNodes>
          <leafValues>
            1.9024071097373962e-01 -1.7632696032524109e-01</leafValues></_>
        <_>
          <internalNodes>
            0 -1 269 7.9994992120191455e-05</internalNodes>
          <leafValues>
            -1.7657896876335144e-01 2.0486946403980255e-01</leafValues></_>
        <_>
          <internalNodes>
            0 -1 115 2.1497749257832766e-03</internalNodes>
          <leafValues>
            4.3033059686422348e-02 -7.6297670602798462e-01</leafValues></_>
        <_>
          <internalNodes>
            0 -1 437 -1.2256441405043006e-03</internalNodes>
          <leafValues>
            -5.0422567129135132e-01 5.7672265917062759e-02</leafValues></_>
        <_>
          <internalNodes>
            0 -1 535 5.4968418553471565e-03</internalNodes>
          <leafValues>
            4.1382074356079102e-02 -7.4032032489776611e-01</leafValues></_>
        <_>
          <internalNodes>
            0 -1 20 -4.1937965154647827e-01</internalNodes>
          <leafValues>
            2.5181053206324577e-02 -1.</leafValues></_>
        <_>
          <internalNodes>
            0 -1 193 7.7698118984699249e-03</internalNodes>
          <leafValues>
            6.0873668640851974e-02 -4.7496578097343445e-01</leafValues></_>
        <_>
          <internalNodes>
            0 -1 306 5.1257502287626266e-02</internalNodes>
          <leafValues>
            -6.9156542420387268e-02 5.9008824825286865e-01</leafValues></_>
        <_>
          <internalNodes>
            0 -1 503 2.2785388864576817e-03</internalNodes>
          <leafValues>
            4.6694852411746979e-02 -8.0243891477584839e-01</leafValues></_>
        <_>
          <internalNodes>
            0 -1 475 1.8903800519183278e-03</internalNodes>
          <leafValues>
            -1.2362348288297653e-01 3.0037778615951538e-01</leafValues></_>
        <_>
          <internalNodes>
            0 -1 547 -4.4404496438801289e-03</internalNodes>
          <leafValues>
            -6.2625873088836670e-01 5.7576823979616165e-02</leafValues></_>
        <_>
          <internalNodes>
            0 -1 490 1.0381082538515329e-03</internalNodes>
          <leafValues>
            -1.3810962438583374e-01 2.8065383434295654e-01</leafValues></_>
        <_>
          <internalNodes>
            0 -1 330 -2.3492239415645599e-02</internalNodes>
          <leafValues>
            -3.6124672740697861e-02 9.6734517812728882e-01</leafValues></_></weakClassifiers></_>
    <!-- stage 11 -->
    <_>
      <maxWeakCount>63</maxWeakCount>
      <stageThreshold>-1.2082216739654541e+00</stageThreshold>
      <weakClassifiers>
        <_>
          <internalNodes>
            0 -1 243 1.0870844125747681e-01</internalNodes>
          <leafValues>
            -5.5735492706298828e-01 2.2033898532390594e-01</leafValues></_>
        <_>
          <internalNodes>
            0 -1 83 1.3021403923630714e-02</internalNodes>
          <leafValues>
            -1.8321018666028976e-02 -9.0214991569519043e-01</leafValues></_>
        <_>
          <internalNodes>
            0 -1 15 -2.1647019311785698e-02</internalNodes>
          <leafValues>
            -5.2887129783630371e-01 9.4196334481239319e-02</leafValues></_>
        <_>
          <internalNodes>
            0 -1 300 7.7816527336835861e-03</internalNodes>
          <leafValues>
            -1.5600460767745972e-01 2.7238702774047852e-01</leafValues></_>
        <_>
          <internalNodes>
            0 -1 237 -6.8562724627554417e-03</internalNodes>
          <leafValues>
            3.4989708662033081e-01 -8.9666537940502167e-02</leafValues></_>
        <_>
          <internalNodes>
            0 -1 110 -1.6833627223968506e-01</internalNodes>
          <leafValues>
            4.7665855288505554e-01 -8.4185495972633362e-02</leafValues></_>
        <_>
          <internalNodes>
            0 -1 315 1.2332554906606674e-03</internalNodes>
          <leafValues>
            -1.4203345775604248e-01 2.5874614715576172e-01</leafValues></_>
        <_>
          <internalNodes>
            0 -1 489 -9.0695023536682129e-03</internalNodes>
          <leafValues>
            3.0549371242523193e-01 -1.1176436394453049e-01</leafValues></_>
        <_>
          <internalNodes>
            0 -1 393 -3.7973549216985703e-02</internalNodes>
          <leafValues>
            7.9441809654235840e-01 -4.6593945473432541e-02</leafValues></_>
        <_>
          <internalNodes>
            0 -1 483 2.4370942264795303e-02</internalNodes>
          <leafValues>
            -1.0088437795639038e-01 3.2377690076828003e-01</leafValues></_>
        <_>
          <internalNodes>
            0 -1 239 6.0115922242403030e-02</internalNodes>
          <leafValues>
            4.0439754724502563e-02 -7.2569495439529419e-01</leafValues></_>
        <_>
          <internalNodes>
            0 -1 50 2.7014480903744698e-02</internalNodes>
          <leafValues>
            -1.1440535634756088e-01 2.7963602542877197e-01</leafValues></_>
        <_>
          <internalNodes>
            0 -1 105 4.6465508639812469e-03</internalNodes>
          <leafValues>
            6.4495913684368134e-02 -5.1330351829528809e-01</leafValues></_>
        <_>
          <internalNodes>
            0 -1 158 -1.0183308273553848e-02</internalNodes>
          <leafValues>
            3.9208555221557617e-01 -7.8498430550098419e-02</leafValues></_>
        <_>
          <internalNodes>
            0 -1 8 4.2388853617012501e-03</internalNodes>
          <leafValues>
            4.8217382282018661e-02 -5.9884154796600342e-01</leafValues></_>
        <_>
          <internalNodes>
            0 -1 11 -1.1970378691330552e-03</internalNodes>
          <leafValues>
            2.0480658113956451e-01 -1.7172062397003174e-01</leafValues></_>
        <_>
          <internalNodes>
            0 -1 209 -3.2751911203376949e-04</internalNodes>
          <leafValues>
            1.6131721436977386e-01 -1.9308871030807495e-01</leafValues></_>
        <_>
          <internalNodes>
            0 -1 223 -1.9992388784885406e-02</internalNodes>
          <leafValues>
            3.5347804427146912e-01 -9.1612696647644043e-02</leafValues></_>
        <_>
          <internalNodes>
            0 -1 43 -4.3066707439720631e-03</internalNodes>
          <leafValues>
            -5.8970844745635986e-01 5.4634857922792435e-02</leafValues></_>
        <_>
          <internalNodes>
            0 -1 224 -7.5026368722319603e-04</internalNodes>
          <leafValues>
            2.6429748535156250e-01 -1.2698939442634583e-01</leafValues></_>
        <_>
          <internalNodes>
            0 -1 59 6.6512726247310638e-02</internalNodes>
          <leafValues>
            -5.8030370622873306e-02 5.7329010963439941e-01</leafValues></_>
        <_>
          <internalNodes>
            0 -1 170 5.2210409194231033e-03</internalNodes>
          <leafValues>
            5.8146383613348007e-02 -6.1292332410812378e-01</leafValues></_>
        <_>
          <internalNodes>
            0 -1 388 6.7158782621845603e-04</internalNodes>
          <leafValues>
            -1.3251824676990509e-01 2.4032379686832428e-01</leafValues></_>
        <_>
          <internalNodes>
            0 -1 395 3.6877504317089915e-04</internalNodes>
          <leafValues>
            -1.5966702997684479e-01 1.9014190137386322e-01</leafValues></_>
        <_>
          <internalNodes>
            0 -1 476 1.2801095843315125e-02</internalNodes>
          <leafValues>
            -7.0305503904819489e-02 4.5238676667213440e-01</leafValues></_>
        <_>
          <internalNodes>
            0 -1 126 -1.4299775939434767e-03</internalNodes>
          <leafValues>
            -4.3867507576942444e-01 7.7940113842487335e-02</leafValues></_>
        <_>
          <internalNodes>
            0 -1 189 1.2275963090360165e-03</internalNodes>
          <leafValues>
            -1.6424471139907837e-01 1.8505536019802094e-01</leafValues></_>
        <_>
          <internalNodes>
            0 -1 518 2.2642405238002539e-03</internalNodes>
          <leafValues>
            3.0302932485938072e-02 -9.5017290115356445e-01</leafValues></_>
        <_>
          <internalNodes>
            0 -1 127 3.0509741045534611e-03</internalNodes>
          <leafValues>
            -1.2063928693532944e-01 2.7206334471702576e-01</leafValues></_>
        <_>
          <internalNodes>
            0 -1 409 -1.1356530012562871e-03</internalNodes>
          <leafValues>
            2.7939006686210632e-01 -1.0837065428495407e-01</leafValues></_>
        <_>
          <internalNodes>
            0 -1 136 -1.6125604510307312e-01</internalNodes>
          <leafValues>
            -8.9269864559173584e-01 3.3694423735141754e-02</leafValues></_>
        <_>
          <internalNodes>
            0 -1 236 2.0599765703082085e-03</internalNodes>
          <leafValues>
            -1.6681404411792755e-01 1.8386833369731903e-01</leafValues></_>
        <_>
          <internalNodes>
            0 -1 153 -8.2174204289913177e-03</internalNodes>
          <leafValues>
            -5.9299099445343018e-01 5.0082203000783920e-02</leafValues></_>
        <_>
          <internalNodes>
            0 -1 302 3.6597192287445068e-02</internalNodes>
          <leafValues>
            -8.1034138798713684e-02 4.4529089331626892e-01</leafValues></_>
        <_>
          <internalNodes>
            0 -1 494 1.6150544397532940e-03</internalNodes>
          <leafValues>
            1.1683019250631332e-01 -2.5594773888587952e-01</leafValues></_>
        <_>
          <internalNodes>
            0 -1 419 -8.7759504094719887e-03</internalNodes>
          <leafValues>
            3.9138630032539368e-01 -8.2598820328712463e-02</leafValues></_>
        <_>
          <internalNodes>
            0 -1 94 -4.0389662608504295e-03</internalNodes>
          <leafValues>
            -5.6342637538909912e-01 5.8531530201435089e-02</leafValues></_>
        <_>
          <internalNodes>
            0 -1 93 -5.0226284656673670e-04</internalNodes>
          <leafValues>
            1.6262479126453400e-01 -2.0065927505493164e-01</leafValues></_>
        <_>
          <internalNodes>
            0 -1 206 5.1410901360213757e-03</internalNodes>
          <leafValues>
            -1.1523413658142090e-01 3.1348189711570740e-01</leafValues></_>
        <_>
          <internalNodes>
            0 -1 97 -2.8253281489014626e-02</internalNodes>
          <leafValues>
            -2.7608576416969299e-01 1.1066123098134995e-01</leafValues></_>
        <_>
          <internalNodes>
            0 -1 63 2.0628314465284348e-02</internalNodes>
          <leafValues>
            -1.1088304221630096e-01 3.1079858541488647e-01</leafValues></_>
        <_>
          <internalNodes>
            0 -1 109 4.9601763486862183e-02</internalNodes>
          <leafValues>
            9.6481189131736755e-02 -3.1656706333160400e-01</leafValues></_>
        <_>
          <internalNodes>
            0 -1 181 1.8891796469688416e-02</internalNodes>
          <leafValues>
            -4.3732259422540665e-02 7.2318214178085327e-01</leafValues></_>
        <_>
          <internalNodes>
            0 -1 512 3.9199111051857471e-03</internalNodes>
          <leafValues>
            4.9303296953439713e-02 -7.0354491472244263e-01</leafValues></_>
        <_>
          <internalNodes>
            0 -1 92 -6.4294124022126198e-03</internalNodes>
          <leafValues>
            2.5663098692893982e-01 -1.1511214822530746e-01</leafValues></_>
        <_>
          <internalNodes>
            0 -1 382 -7.5960280373692513e-03</internalNodes>
          <leafValues>
            2.8129392862319946e-01 -1.1668768525123596e-01</leafValues></_>
        <_>
          <internalNodes>
            0 -1 40 -3.7916108965873718e-02</internalNodes>
          <leafValues>
            7.9189270734786987e-01 -4.0932834148406982e-02</leafValues></_>
        <_>
          <internalNodes>
            0 -1 42 3.2564848661422729e-03</internalNodes>
          <leafValues>
            4.2819332331418991e-02 -9.2322182655334473e-01</leafValues></_>
        <_>
          <internalNodes>
            0 -1 465 -2.3621704895049334e-03</internalNodes>
          <leafValues>
            3.1081980466842651e-01 -1.0910831391811371e-01</leafValues></_>
        <_>
          <internalNodes>
            0 -1 331 1.4829991385340691e-02</internalNodes>
          <leafValues>
            -6.3469976186752319e-02 5.4272317886352539e-01</leafValues></_>
        <_>
          <internalNodes>
            0 -1 190 2.3002284578979015e-03</internalNodes>
          <leafValues>
            -1.3439023494720459e-01 2.2434537112712860e-01</leafValues></_>
        <_>
          <internalNodes>
            0 -1 102 1.8015205860137939e-03</internalNodes>
          <leafValues>
            3.9398785680532455e-02 -7.0879650115966797e-01</leafValues></_>
        <_>
          <internalNodes>
            0 -1 335 -8.3255721256136894e-03</internalNodes>
          <leafValues>
            3.8059276342391968e-01 -8.7540648877620697e-02</leafValues></_>
        <_>
          <internalNodes>
            0 -1 227 4.4193840585649014e-04</internalNodes>
          <leafValues>
            -1.2867337465286255e-01 2.2420206665992737e-01</leafValues></_>
        <_>
          <internalNodes>
            0 -1 459 -3.1092546880245209e-02</internalNodes>
          <leafValues>
            8.4388738870620728e-01 -3.4034807235002518e-02</leafValues></_>
        <_>
          <internalNodes>
            0 -1 504 -9.4600440934300423e-03</internalNodes>
          <leafValues>
            -4.7795015573501587e-01 7.0754826068878174e-02</leafValues></_>
        <_>
          <internalNodes>
            0 -1 391 -5.0832275301218033e-03</internalNodes>
          <leafValues>
            -7.8286838531494141e-01 3.5565949976444244e-02</leafValues></_>
        <_>
          <internalNodes>
            0 -1 204 -7.2151067433878779e-04</internalNodes>
          <leafValues>
            2.0007787644863129e-01 -1.4408257603645325e-01</leafValues></_>
        <_>
          <internalNodes>
            0 -1 406 6.5116569399833679e-02</internalNodes>
          <leafValues>
            -5.8567781001329422e-02 5.2400153875350952e-01</leafValues></_>
        <_>
          <internalNodes>
            0 -1 445 1.6930068377405405e-03</internalNodes>
          <leafValues>
            -6.7540764808654785e-02 4.3155190348625183e-01</leafValues></_>
        <_>
          <internalNodes>
            0 -1 485 -8.2848753663711250e-05</internalNodes>
          <leafValues>
            1.8300986289978027e-01 -1.6534110903739929e-01</leafValues></_>
        <_>
          <internalNodes>
            0 -1 217 -3.2421350479125977e-03</internalNodes>
          <leafValues>
            -6.5770488977432251e-01 4.2387261986732483e-02</leafValues></_>
        <_>
          <internalNodes>
            0 -1 107 2.8602881357073784e-03</internalNodes>
          <leafValues>
            -1.0491695255041122e-01 2.8979763388633728e-01</leafValues></_></weakClassifiers></_>
    <!-- stage 12 -->
    <_>
      <maxWeakCount>70</maxWeakCount>
      <stageThreshold>-9.4404566287994385e-01</stageThreshold>
      <weakClassifiers>
        <_>
          <internalNodes>
            0 -1 225 1.1695230007171631e-01</internalNodes>
          <leafValues>
            -5.2350699901580811e-01 9.2307692766189575e-01</leafValues></_>
        <_>
          <internalNodes>
            0 -1 456 -3.6875978112220764e-03</internalNodes>
          <leafValues>
            -5.4471445083618164e-01 2.5468159466981888e-02</leafValues></_>
        <_>
          <internalNodes>
            0 -1 194 -7.5556654483079910e-03</internalNodes>
          <leafValues>
            -6.8676292896270752e-01 5.2386645227670670e-02</leafValues></_>
        <_>
          <internalNodes>
            0 -1 44 -1.7049881815910339e-01</internalNodes>
          <leafValues>
            4.1121646761894226e-01 -6.1938032507896423e-02</leafValues></_>
        <_>
          <internalNodes>
            0 -1 367 5.5003622546792030e-03</internalNodes>
          <leafValues>
            -1.6310025751590729e-01 3.2163313031196594e-01</leafValues></_>
        <_>
          <internalNodes>
            0 -1 135 -1.2399908155202866e-01</internalNodes>
          <leafValues>
            -8.8472038507461548e-01 2.5157567113637924e-02</leafValues></_>
        <_>
          <internalNodes>
            0 -1 79 -5.7100914418697357e-03</internalNodes>
          <leafValues>
            -5.0769859552383423e-01 5.3761839866638184e-02</leafValues></_>
        <_>
          <internalNodes>
            0 -1 169 -1.5620021149516106e-02</internalNodes>
          <leafValues>
            -5.6867086887359619e-01 5.4274570196866989e-02</leafValues></_>
        <_>
          <internalNodes>
            0 -1 203 -3.8873958587646484e-01</internalNodes>
          <leafValues>
            7.9235064983367920e-01 -3.5633798688650131e-02</leafValues></_>
        <_>
          <internalNodes>
            0 -1 522 8.2318838685750961e-03</internalNodes>
          <leafValues>
            6.7733831703662872e-02 -4.7232916951179504e-01</leafValues></_>
        <_>
          <internalNodes>
            0 -1 511 -6.3959476538002491e-03</internalNodes>
          <leafValues>
            4.7764502465724945e-02 -7.3886775970458984e-01</leafValues></_>
        <_>
          <internalNodes>
            0 -1 214 7.1906633675098419e-03</internalNodes>
          <leafValues>
            -5.9031624346971512e-02 6.8381679058074951e-01</leafValues></_>
        <_>
          <internalNodes>
            0 -1 273 4.8919990658760071e-03</internalNodes>
          <leafValues>
            6.3662797212600708e-02 -4.9685874581336975e-01</leafValues></_>
        <_>
          <internalNodes>
            0 -1 216 1.3534543104469776e-03</internalNodes>
          <leafValues>
            -1.5293832123279572e-01 1.7788401246070862e-01</leafValues></_>
        <_>
          <internalNodes>
            0 -1 349 -1.5357138216495514e-01</internalNodes>
          <leafValues>
            -8.2519602775573730e-01 2.9418645426630974e-02</leafValues></_>
        <_>
          <internalNodes>
            0 -1 140 -1.1004325933754444e-02</internalNodes>
          <leafValues>
            1.9052353501319885e-01 -1.5094637870788574e-01</leafValues></_>
        <_>
          <internalNodes>
            0 -1 295 -1.3358319178223610e-02</internalNodes>
          <leafValues>
            3.1302392482757568e-01 -1.0562223196029663e-01</leafValues></_>
        <_>
          <internalNodes>
            0 -1 205 6.2303347513079643e-03</internalNodes>
          <leafValues>
            -8.2370042800903320e-02 3.3844837546348572e-01</leafValues></_>
        <_>
          <internalNodes>
            0 -1 469 2.5238078087568283e-03</internalNodes>
          <leafValues>
            3.2170504331588745e-02 -9.3631362915039063e-01</leafValues></_>
        <_>
          <internalNodes>
            0 -1 390 8.0758670810610056e-04</internalNodes>
          <leafValues>
            -1.4233243465423584e-01 1.9407372176647186e-01</leafValues></_>
        <_>
          <internalNodes>
            0 -1 120 2.5685704313218594e-03</internalNodes>
          <leafValues>
            5.4060973227024078e-02 -5.1988399028778076e-01</leafValues></_>
        <_>
          <internalNodes>
            0 -1 284 -4.5342914760112762e-02</internalNodes>
          <leafValues>
            -8.3325320482254028e-01 3.0296858400106430e-02</leafValues></_>
        <_>
          <internalNodes>
            0 -1 132 -6.4898822456598282e-03</internalNodes>
          <leafValues>
            1.8859560787677765e-01 -1.5923434495925903e-01</leafValues></_>
        <_>
          <internalNodes>
            0 -1 457 7.0784613490104675e-02</internalNodes>
          <leafValues>
            -4.5449778437614441e-02 6.6441720724105835e-01</leafValues></_>
        <_>
          <internalNodes>
            0 -1 48 6.7513836547732353e-03</internalNodes>
          <leafValues>
            6.8085886538028717e-02 -4.3454432487487793e-01</leafValues></_>
        <_>
          <internalNodes>
            0 -1 54 9.4610843807458878e-03</internalNodes>
          <leafValues>
            -1.1205869168043137e-01 2.6521727442741394e-01</leafValues></_>
        <_>
          <internalNodes>
            0 -1 129 2.8772940859198570e-03</internalNodes>
          <leafValues>
            4.7910187393426895e-02 -5.7884007692337036e-01</leafValues></_>
        <_>
          <internalNodes>
            0 -1 46 3.6189699312672019e-04</internalNodes>
          <leafValues>
            -1.1467389017343521e-01 2.3434957861900330e-01</leafValues></_>
        <_>
          <internalNodes>
            0 -1 549 2.5094747543334961e-03</internalNodes>
          <leafValues>
            7.9392544925212860e-02 -3.5976707935333252e-01</leafValues></_>
        <_>
          <internalNodes>
            0 -1 28 1.0034244507551193e-02</internalNodes>
          <leafValues>
            4.5036662369966507e-02 -5.6562763452529907e-01</leafValues></_>
        <_>
          <internalNodes>
            0 -1 285 -3.9977077394723892e-03</internalNodes>
          <leafValues>
            3.1990918517112732e-01 -8.6463727056980133e-02</leafValues></_>
        <_>
          <internalNodes>
            0 -1 396 -1.5871249139308929e-02</internalNodes>
          <leafValues>
            3.3175748586654663e-01 -7.8185021877288818e-02</leafValues></_>
        <_>
          <internalNodes>
            0 -1 496 -1.2545885518193245e-02</internalNodes>
          <leafValues>
            -6.7589879035949707e-01 3.9774555712938309e-02</leafValues></_>
        <_>
          <internalNodes>
            0 -1 479 -1.2047080323100090e-02</internalNodes>
          <leafValues>
            2.1834352612495422e-01 -1.3349398970603943e-01</leafValues></_>
        <_>
          <internalNodes>
            0 -1 166 -5.2862539887428284e-03</internalNodes>
          <leafValues>
            2.8726360201835632e-01 -1.0007603466510773e-01</leafValues></_>
        <_>
          <internalNodes>
            0 -1 471 -1.7684787744656205e-03</internalNodes>
          <leafValues>
            -5.0990343093872070e-01 5.4438572376966476e-02</leafValues></_>
        <_>
          <internalNodes>
            0 -1 342 6.1201583594083786e-03</internalNodes>
          <leafValues>
            3.9430838078260422e-02 -6.3341557979583740e-01</leafValues></_>
        <_>
          <internalNodes>
            0 -1 411 -2.9278738657012582e-04</internalNodes>
          <leafValues>
            2.3907373845577240e-01 -1.1115979403257370e-01</leafValues></_>
        <_>
          <internalNodes>
            0 -1 86 1.2103237211704254e-02</internalNodes>
          <leafValues>
            -9.5389053225517273e-02 2.9645061492919922e-01</leafValues></_>
        <_>
          <internalNodes>
            0 -1 17 2.8029480576515198e-01</internalNodes>
          <leafValues>
            -3.4297816455364227e-02 8.0525511503219604e-01</leafValues></_>
        <_>
          <internalNodes>
            0 -1 424 3.7752375937998295e-03</internalNodes>
          <leafValues>
            -8.8771797716617584e-02 3.3392423391342163e-01</leafValues></_>
        <_>
          <internalNodes>
            0 -1 508 5.4094428196549416e-03</internalNodes>
          <leafValues>
            5.5400542914867401e-02 -4.9017494916915894e-01</leafValues></_>
        <_>
          <internalNodes>
            0 -1 443 7.3023349978029728e-03</internalNodes>
          <leafValues>
            -8.8383339345455170e-02 3.1640800833702087e-01</leafValues></_>
        <_>
          <internalNodes>
            0 -1 488 -7.2793006896972656e-02</internalNodes>
          <leafValues>
            8.6309653520584106e-01 -2.9965586960315704e-02</leafValues></_>
        <_>
          <internalNodes>
            0 -1 463 -1.1037767762900330e-05</internalNodes>
          <leafValues>
            1.8139493465423584e-01 -1.5321290493011475e-01</leafValues></_>
        <_>
          <internalNodes>
            0 -1 258 8.5542500019073486e-02</internalNodes>
          <leafValues>
            -3.1720146536827087e-02 7.7939236164093018e-01</leafValues></_>
        <_>
          <internalNodes>
            0 -1 337 1.3264955487102270e-04</internalNodes>
          <leafValues>
            -1.5560364723205566e-01 1.7755116522312164e-01</leafValues></_>
        <_>
          <internalNodes>
            0 -1 501 -4.7927089035511017e-03</internalNodes>
          <leafValues>
            -9.1911959648132324e-01 2.8750719502568245e-02</leafValues></_>
        <_>
          <internalNodes>
            0 -1 221 6.4130716025829315e-02</internalNodes>
          <leafValues>
            -4.7896649688482285e-02 6.6842764616012573e-01</leafValues></_>
        <_>
          <internalNodes>
            0 -1 319 -1.8359988462179899e-03</internalNodes>
          <leafValues>
            2.6301410794258118e-01 -9.8089814186096191e-02</leafValues></_>
        <_>
          <internalNodes>
            0 -1 452 1.9741104915738106e-02</internalNodes>
          <leafValues>
            5.6723333895206451e-02 -5.1986449956893921e-01</leafValues></_>
        <_>
          <internalNodes>
            0 -1 389 -2.9301631730049849e-03</internalNodes>
          <leafValues>
            -3.2110047340393066e-01 8.9641608297824860e-02</leafValues></_>
        <_>
          <internalNodes>
            0 -1 82 2.3687154054641724e-02</internalNodes>
          <leafValues>
            -5.2252184599637985e-02 6.0846555233001709e-01</leafValues></_>
        <_>
          <internalNodes>
            0 -1 267 -3.8575213402509689e-03</internalNodes>
          <leafValues>
            2.9042515158653259e-01 -9.3464985489845276e-02</leafValues></_>
        <_>
          <internalNodes>
            0 -1 251 1.1042477190494537e-01</internalNodes>
          <leafValues>
            6.3809953629970551e-02 -4.5782220363616943e-01</leafValues></_>
        <_>
          <internalNodes>
            0 -1 392 -3.9501916617155075e-02</internalNodes>
          <leafValues>
            -3.3827789127826691e-02 9.4383066892623901e-01</leafValues></_>
        <_>
          <internalNodes>
            0 -1 56 4.9908079206943512e-02</internalNodes>
          <leafValues>
            9.8467804491519928e-02 -3.0999073386192322e-01</leafValues></_>
        <_>
          <internalNodes>
            0 -1 100 4.6627488918602467e-03</internalNodes>
          <leafValues>
            -1.1125557124614716e-01 2.8171464800834656e-01</leafValues></_>
        <_>
          <internalNodes>
            0 -1 517 7.0615913718938828e-03</internalNodes>
          <leafValues>
            6.0542218387126923e-02 -5.8424735069274902e-01</leafValues></_>
        <_>
          <internalNodes>
            0 -1 250 -4.1978907585144043e-01</internalNodes>
          <leafValues>
            8.8163338601589203e-02 -3.5240375995635986e-01</leafValues></_>
        <_>
          <internalNodes>
            0 -1 554 -2.4139622692018747e-03</internalNodes>
          <leafValues>
            -5.7737702131271362e-01 5.4592341184616089e-02</leafValues></_>
        <_>
          <internalNodes>
            0 -1 162 5.7376194745302200e-03</internalNodes>
          <leafValues>
            4.9606893211603165e-02 -5.9169447422027588e-01</leafValues></_>
        <_>
          <internalNodes>
            0 -1 509 -4.1787745431065559e-03</internalNodes>
          <leafValues>
            -3.3981370925903320e-01 8.5154823958873749e-02</leafValues></_>
        <_>
          <internalNodes>
            0 -1 113 -5.3718321025371552e-02</internalNodes>
          <leafValues>
            -4.2658743262290955e-01 5.8581084012985229e-02</leafValues></_>
        <_>
          <internalNodes>
            0 -1 145 8.4084976697340608e-04</internalNodes>
          <leafValues>
            -1.4005169272422791e-01 2.2046770155429840e-01</leafValues></_>
        <_>
          <internalNodes>
            0 -1 544 -1.9683167338371277e-03</internalNodes>
          <leafValues>
            -6.8878179788589478e-01 4.5453365892171860e-02</leafValues></_>
        <_>
          <internalNodes>
            0 -1 268 4.1448706761002541e-03</internalNodes>
          <leafValues>
            2.9129114001989365e-02 -7.6827418804168701e-01</leafValues></_>
        <_>
          <internalNodes>
            0 -1 495 -2.2701872512698174e-03</internalNodes>
          <leafValues>
            6.9042867422103882e-01 -4.6324595808982849e-02</leafValues></_>
        <_>
          <internalNodes>
            0 -1 71 8.6634717881679535e-03</internalNodes>
          <leafValues>
            3.4967854619026184e-02 -8.7917941808700562e-01</leafValues></_>
        <_>
          <internalNodes>
            0 -1 241 -9.2140194028615952e-03</internalNodes>
          <leafValues>
            5.1735013723373413e-01 -6.0483377426862717e-02</leafValues></_></weakClassifiers></_>
    <!-- stage 13 -->
    <_>
      <maxWeakCount>72</maxWeakCount>
      <stageThreshold>-1.1790019273757935e+00</stageThreshold>
      <weakClassifiers>
        <_>
          <internalNodes>
            0 -1 287 3.3034384250640869e-02</internalNodes>
          <leafValues>
            -5.3062540292739868e-01 4.6938776969909668e-01</leafValues></_>
        <_>
          <internalNodes>
            0 -1 375 -1.3643035292625427e-01</internalNodes>
          <leafValues>
            4.1462972760200500e-01 -1.2553504109382629e-01</leafValues></_>
        <_>
          <internalNodes>
            0 -1 15 3.7396915256977081e-02</internalNodes>
          <leafValues>
            5.5665116757154465e-02 -6.8003040552139282e-01</leafValues></_>
        <_>
          <internalNodes>
            0 -1 12 -3.4246258437633514e-02</internalNodes>
          <leafValues>
            -5.8679455518722534e-01 8.1083871424198151e-02</leafValues></_>
        <_>
          <internalNodes>
            0 -1 525 -7.8891282901167870e-03</internalNodes>
          <leafValues>
            -6.1499208211898804e-01 4.2071893811225891e-02</leafValues></_>
        <_>
          <internalNodes>
            0 -1 416 8.9029937982559204e-02</internalNodes>
          <leafValues>
            -8.7035104632377625e-02 3.1898310780525208e-01</leafValues></_>
        <_>
          <internalNodes>
            0 -1 195 2.3069113376550376e-04</internalNodes>
          <leafValues>
            -1.5074634552001953e-01 1.6984736919403076e-01</leafValues></_>
        <_>
          <internalNodes>
            0 -1 220 -2.3013894679024816e-04</internalNodes>
          <leafValues>
            1.7579492926597595e-01 -1.5273590385913849e-01</leafValues></_>
        <_>
          <internalNodes>
            0 -1 407 -3.9014173671603203e-04</internalNodes>
          <leafValues>
            2.1883291006088257e-01 -1.1574239283800125e-01</leafValues></_>
        <_>
          <internalNodes>
            0 -1 72 5.7151811197400093e-03</internalNodes>
          <leafValues>
            4.7284461557865143e-02 -6.3436663150787354e-01</leafValues></_>
        <_>
          <internalNodes>
            0 -1 472 1.2667568400502205e-02</internalNodes>
          <leafValues>
            2.8264461085200310e-02 -7.6639628410339355e-01</leafValues></_>
        <_>
          <internalNodes>
            0 -1 487 2.0492089970503002e-04</internalNodes>
          <leafValues>
            -1.4003759622573853e-01 1.8634161353111267e-01</leafValues></_>
        <_>
          <internalNodes>
            0 -1 480 1.1070750653743744e-02</internalNodes>
          <leafValues>
            2.7932751923799515e-02 -8.0102229118347168e-01</leafValues></_>
        <_>
          <internalNodes>
            0 -1 150 2.1364893764257431e-03</internalNodes>
          <leafValues>
            3.1590111553668976e-02 -6.6555523872375488e-01</leafValues></_>
        <_>
          <internalNodes>
            0 -1 451 2.3208143829833716e-04</internalNodes>
          <leafValues>
            -1.3191685080528259e-01 1.9310344755649567e-01</leafValues></_>
        <_>
          <internalNodes>
            0 -1 270 -2.3598303087055683e-03</internalNodes>
          <leafValues>
            -1. 2.4868076667189598e-02</leafValues></_>
        <_>
          <internalNodes>
            0 -1 344 5.3853532299399376e-03</internalNodes>
          <leafValues>
            -6.8247124552726746e-02 4.0880480408668518e-01</leafValues></_>
        <_>
          <internalNodes>
            0 -1 247 1.4332598075270653e-03</internalNodes>
          <leafValues>
            1.2091708183288574e-01 -2.2525948286056519e-01</leafValues></_>
        <_>
          <internalNodes>
            0 -1 134 4.4009909033775330e-02</internalNodes>
          <leafValues>
            -5.5478990077972412e-02 5.1722902059555054e-01</leafValues></_>
        <_>
          <internalNodes>
            0 -1 321 -1.7586279660463333e-02</internalNodes>
          <leafValues>
            3.5734802484512329e-01 -7.6177939772605896e-02</leafValues></_>
        <_>
          <internalNodes>
            0 -1 535 -7.2413422167301178e-03</internalNodes>
          <leafValues>
            -7.3238486051559448e-01 3.6410115659236908e-02</leafValues></_>
        <_>
          <internalNodes>
            0 -1 229 -7.2308629751205444e-02</internalNodes>
          <leafValues>
            5.9963345527648926e-01 -4.9142487347126007e-02</leafValues></_>
        <_>
          <internalNodes>
            0 -1 116 2.7491923421621323e-02</internalNodes>
          <leafValues>
            3.8223493844270706e-02 -7.3835319280624390e-01</leafValues></_>
        <_>
          <internalNodes>
            0 -1 64 6.8317083641886711e-03</internalNodes>
          <leafValues>
            1.9615903496742249e-02 -9.6939617395401001e-01</leafValues></_>
        <_>
          <internalNodes>
            0 -1 157 5.8938236907124519e-03</internalNodes>
          <leafValues>
            -7.2857208549976349e-02 3.8576704263687134e-01</leafValues></_>
        <_>
          <internalNodes>
            0 -1 196 8.9646931737661362e-03</internalNodes>
          <leafValues>
            5.3588237613439560e-02 -4.7441816329956055e-01</leafValues></_>
        <_>
          <internalNodes>
            0 -1 538 6.3782809302210808e-03</internalNodes>
          <leafValues>
            2.2530125454068184e-02 -9.6096062660217285e-01</leafValues></_>
        <_>
          <internalNodes>
            0 -1 441 1.4159202575683594e-02</internalNodes>
          <leafValues>
            2.5351857766509056e-02 -7.3544722795486450e-01</leafValues></_>
        <_>
          <internalNodes>
            0 -1 322 -6.7211210727691650e-02</internalNodes>
          <leafValues>
            6.2216645479202271e-01 -4.5912098139524460e-02</leafValues></_>
        <_>
          <internalNodes>
            0 -1 159 2.1356385201215744e-02</internalNodes>
          <leafValues>
            -9.7864784300327301e-02 2.7905055880546570e-01</leafValues></_>
        <_>
          <internalNodes>
            0 -1 117 -2.6485491544008255e-02</internalNodes>
          <leafValues>
            3.5099175572395325e-01 -8.8133566081523895e-02</leafValues></_>
        <_>
          <internalNodes>
            0 -1 14 -3.1146371364593506e-01</internalNodes>
          <leafValues>
            6.0575664043426514e-01 -4.4203281402587891e-02</leafValues></_>
        <_>
          <internalNodes>
            0 -1 309 -6.8149352446198463e-03</internalNodes>
          <leafValues>
            -5.9189105033874512e-01 5.5957373231649399e-02</leafValues></_>
        <_>
          <internalNodes>
            0 -1 264 1.4314142754301429e-03</internalNodes>
          <leafValues>
            -1.1615118384361267e-01 2.4910674989223480e-01</leafValues></_>
        <_>
          <internalNodes>
            0 -1 164 1.6119948029518127e-01</internalNodes>
          <leafValues>
            3.2364156097173691e-02 -8.2551264762878418e-01</leafValues></_>
        <_>
          <internalNodes>
            0 -1 252 3.1477180309593678e-03</internalNodes>
          <leafValues>
            1.5093027055263519e-01 -1.9015465676784515e-01</leafValues></_>
        <_>
          <internalNodes>
            0 -1 147 -3.9733737707138062e-02</internalNodes>
          <leafValues>
            2.5974565744400024e-01 -1.1329285800457001e-01</leafValues></_>
        <_>
          <internalNodes>
            0 -1 182 -1.0446919128298759e-02</internalNodes>
          <leafValues>
            -1.9857923686504364e-01 1.5228261053562164e-01</leafValues></_>
        <_>
          <internalNodes>
            0 -1 551 -1.1144118383526802e-02</internalNodes>
          <leafValues>
            -9.3403154611587524e-01 2.6260558515787125e-02</leafValues></_>
        <_>
          <internalNodes>
            0 -1 249 -1.9517932087182999e-02</internalNodes>
          <leafValues>
            -2.2230692207813263e-01 1.1604692041873932e-01</leafValues></_>
        <_>
          <internalNodes>
            0 -1 108 -7.5732775032520294e-02</internalNodes>
          <leafValues>
            -6.9729781150817871e-01 3.4680895507335663e-02</leafValues></_>
        <_>
          <internalNodes>
            0 -1 310 -5.8221809566020966e-02</internalNodes>
          <leafValues>
            8.0095094442367554e-01 -4.2613860219717026e-02</leafValues></_>
        <_>
          <internalNodes>
            0 -1 403 -3.0047411564737558e-03</internalNodes>
          <leafValues>
            3.5576224327087402e-01 -6.4793586730957031e-02</leafValues></_>
        <_>
          <internalNodes>
            0 -1 478 7.2666686028242111e-03</internalNodes>
          <leafValues>
            3.1445920467376709e-02 -8.3860045671463013e-01</leafValues></_>
        <_>
          <internalNodes>
            0 -1 447 4.8314610467059538e-05</internalNodes>
          <leafValues>
            -1.6009487211704254e-01 1.6169954836368561e-01</leafValues></_>
        <_>
          <internalNodes>
            0 -1 470 -1.1394556611776352e-01</internalNodes>
          <leafValues>
            8.6713773012161255e-01 -2.8629789128899574e-02</leafValues></_>
        <_>
          <internalNodes>
            0 -1 493 1.1076759546995163e-02</internalNodes>
          <leafValues>
            -7.7599741518497467e-02 3.0166670680046082e-01</leafValues></_>
        <_>
          <internalNodes>
            0 -1 481 -1.1336212977766991e-02</internalNodes>
          <leafValues>
            -7.3646765947341919e-01 3.4803569316864014e-02</leafValues></_>
        <_>
          <internalNodes>
            0 -1 486 -2.1931445226073265e-03</internalNodes>
          <leafValues>
            2.4005585908889771e-01 -1.2743766605854034e-01</leafValues></_>
        <_>
          <internalNodes>
            0 -1 430 -1.6434237360954285e-02</internalNodes>
          <leafValues>
            8.6312901973724365e-01 -2.8523109853267670e-02</leafValues></_>
        <_>
          <internalNodes>
            0 -1 53 5.5524017661809921e-03</internalNodes>
          <leafValues>
            3.5682696849107742e-02 -8.1851291656494141e-01</leafValues></_>
        <_>
          <internalNodes>
            0 -1 122 -1.4063248410820961e-02</internalNodes>
          <leafValues>
            -2.4494796991348267e-01 9.3512669205665588e-02</leafValues></_>
        <_>
          <internalNodes>
            0 -1 333 -3.6631952971220016e-03</internalNodes>
          <leafValues>
            3.2841971516609192e-01 -7.9370915889739990e-02</leafValues></_>
        <_>
          <internalNodes>
            0 -1 502 1.1334458831697702e-03</internalNodes>
          <leafValues>
            4.8277001827955246e-02 -4.6780246496200562e-01</leafValues></_>
        <_>
          <internalNodes>
            0 -1 192 -5.7741021737456322e-03</internalNodes>
          <leafValues>
            3.2935297489166260e-01 -7.7632173895835876e-02</leafValues></_>
        <_>
          <internalNodes>
            0 -1 477 -2.9747837688773870e-03</internalNodes>
          <leafValues>
            -5.1451182365417480e-01 4.7637946903705597e-02</leafValues></_>
        <_>
          <internalNodes>
            0 -1 124 -1.2337822467088699e-02</internalNodes>
          <leafValues>
            5.0922077894210815e-01 -5.2218813449144363e-02</leafValues></_>
        <_>
          <internalNodes>
            0 -1 263 -5.1439583301544189e-02</internalNodes>
          <leafValues>
            4.5078957080841064e-01 -5.1234353333711624e-02</leafValues></_>
        <_>
          <internalNodes>
            0 -1 289 -8.4850005805492401e-02</internalNodes>
          <leafValues>
            6.3054597377777100e-01 -3.9387747645378113e-02</leafValues></_>
        <_>
          <internalNodes>
            0 -1 141 -3.9203412830829620e-02</internalNodes>
          <leafValues>
            2.7734431624412537e-01 -1.0282854735851288e-01</leafValues></_>
        <_>
          <internalNodes>
            0 -1 138 -1.8688946147449315e-04</internalNodes>
          <leafValues>
            2.1696980297565460e-01 -1.1312327533960342e-01</leafValues></_>
        <_>
          <internalNodes>
            0 -1 185 -7.0937641430646181e-04</internalNodes>
          <leafValues>
            -1.6026429831981659e-01 1.5646293759346008e-01</leafValues></_>
        <_>
          <internalNodes>
            0 -1 377 1.6060827299952507e-02</internalNodes>
          <leafValues>
            8.3356864750385284e-02 -3.0954405665397644e-01</leafValues></_>
        <_>
          <internalNodes>
            0 -1 420 7.5231969356536865e-02</internalNodes>
          <leafValues>
            -4.1432537138462067e-02 7.2940272092819214e-01</leafValues></_>
        <_>
          <internalNodes>
            0 -1 283 1.8012003973126411e-02</internalNodes>
          <leafValues>
            -6.4070649445056915e-02 3.8674095273017883e-01</leafValues></_>
        <_>
          <internalNodes>
            0 -1 207 2.2049513645470142e-03</internalNodes>
          <leafValues>
            -1.2436917424201965e-01 2.3450134694576263e-01</leafValues></_>
        <_>
          <internalNodes>
            0 -1 432 -3.5424341331236064e-04</internalNodes>
          <leafValues>
            1.7035879194736481e-01 -1.4696992933750153e-01</leafValues></_>
        <_>
          <internalNodes>
            0 -1 218 4.9284780398011208e-03</internalNodes>
          <leafValues>
            3.3796545118093491e-02 -7.2822195291519165e-01</leafValues></_>
        <_>
          <internalNodes>
            0 -1 260 -2.6032198220491409e-02</internalNodes>
          <leafValues>
            9.6628957986831665e-01 -3.1186414882540703e-02</leafValues></_>
        <_>
          <internalNodes>
            0 -1 385 9.5017682760953903e-03</internalNodes>
          <leafValues>
            6.0482155531644821e-02 -4.9233892560005188e-01</leafValues></_>
        <_>
          <internalNodes>
            0 -1 423 -6.7897379398345947e-02</internalNodes>
          <leafValues>
            4.8648017644882202e-01 -5.3492650389671326e-02</leafValues></_>
        <_>
          <internalNodes>
            0 -1 24 3.1367085874080658e-02</internalNodes>
          <leafValues>
            1.0705705732107162e-01 -2.6802268624305725e-01</leafValues></_></weakClassifiers></_>
    <!-- stage 14 -->
    <_>
      <maxWeakCount>76</maxWeakCount>
      <stageThreshold>-1.0814208984375000e+00</stageThreshold>
      <weakClassifiers>
        <_>
          <internalNodes>
            0 -1 357 -8.7065827101469040e-03</internalNodes>
          <leafValues>
            8.6956523358821869e-02 -5.3580904006958008e-01</leafValues></_>
        <_>
